W1:
[[ 4.6085e-01  9.1107e-01  4.1834e-01  2.2215e-01 -9.8822e-01  4.5534e-01
   7.5559e-01 -7.0886e-02  9.9843e-01  5.9213e-01 -1.8659e-01  1.9139e-01
   4.7341e-01 -2.3144e-01 -1.1198e-01 -3.9157e-01]
 [-1.5893e-01  9.1864e-01 -5.1032e-01  6.6380e-01 -4.1926e-01 -5.5089e-01
  -1.7177e-01  7.8888e-01 -7.4398e-02 -6.0988e-01 -8.2046e-01  4.1914e-01
  -7.2329e-01  9.4821e-01  4.2005e-01 -3.1265e-01]
 [ 5.7014e-01 -6.9355e-02 -4.6618e-01  5.9307e-01 -8.0479e-01  4.8471e-01
  -9.0117e-01  2.0361e-01  1.0712e-02 -6.0168e-01  3.8986e-01 -6.5746e-01
   9.4453e-01 -1.2292e-02 -1.7130e-01  8.9577e-01]
 [-9.7368e-01  2.1828e-01 -5.3112e-02 -8.6527e-01  6.6514e-01  9.0251e-01
  -9.2935e-01  9.1810e-01 -4.3373e-01  9.1631e-01  7.5833e-01 -4.4124e-01
   8.3080e-01  1.4667e-01 -7.0858e-01 -1.8113e-02]
 [-3.7211e-01 -9.3051e-01 -1.4504e-01 -7.4403e-01 -3.4875e-01 -8.6750e-01
   2.0381e-01 -4.6679e-01 -2.3592e-01  9.1949e-01  3.2852e-01 -1.7907e-01
   2.8775e-01  1.3142e-01 -8.7216e-02  5.9369e-01]
 [ 2.2132e-01 -2.7244e-01 -7.4032e-01  2.6718e-01  7.8987e-01 -4.1867e-01
  -3.8613e-01 -3.7211e-01  8.8486e-01  3.4958e-01  9.3506e-01  7.8041e-01
  -4.2122e-01  5.2517e-01 -2.9895e-01  3.4734e-01]
 [-5.1394e-01  4.1168e-01 -9.7356e-02 -6.0319e-01 -4.6196e-01  3.7355e-01
  -7.8371e-01 -8.4141e-01 -9.4854e-01 -9.6616e-01 -1.1667e-01 -5.4279e-01
  -3.8920e-01  5.7951e-01  9.5343e-01 -5.6765e-01]
 [-3.2331e-01 -9.7245e-01 -8.2727e-01 -6.3542e-01 -2.6209e-01  9.7818e-01
  -7.7952e-01 -3.4979e-01 -1.4241e-01 -9.5822e-01 -6.8450e-01  8.8078e-01
  -4.5170e-01  3.5511e-01  1.0924e-01 -9.0627e-01]
 [-5.8786e-01  3.7685e-01 -2.5717e-01  3.4064e-01 -8.4786e-01  5.9135e-01
   3.0096e-01  5.5254e-01 -6.9799e-01  5.8472e-01 -9.9024e-01  3.6547e-01
   4.3821e-01 -7.3103e-01 -7.6517e-02  5.5686e-01]
 [-1.7852e-01  1.3524e-03 -4.0549e-01  1.0365e-01 -7.9010e-01  9.6480e-01
   1.8805e-01 -7.5426e-01  4.8077e-01  4.7281e-01 -3.6713e-01  1.2021e-01
  -4.7659e-01 -6.0754e-01 -5.6262e-01  9.1281e-01]
 [-4.3440e-01 -2.2401e-02 -1.9197e-02 -7.0001e-01  7.2150e-01  4.8025e-01
  -5.8134e-01 -8.4211e-01 -2.9608e-01  6.1936e-01 -6.2314e-01 -5.0847e-01
  -1.6309e-01  8.5382e-01 -9.4283e-01 -5.6182e-01]
 [ 3.2524e-01  5.3484e-01 -3.8809e-01  4.6497e-02  4.4473e-01 -3.4892e-01
  -3.4465e-02  4.3079e-01 -8.9603e-01  3.8313e-02  3.4437e-01  9.6987e-01
   1.7360e-01 -7.4345e-01  7.8832e-01  2.7247e-01]
 [-3.4400e-01 -4.4119e-01  2.7341e-01  8.5847e-01  1.6176e-01  1.2696e-01
  -7.1257e-01  7.8714e-01  1.1515e-01  7.4185e-02 -2.6962e-01  9.7440e-02
  -6.3026e-01  9.4433e-01  5.3098e-01 -7.1455e-01]
 [-7.8227e-03  5.9614e-01 -8.5891e-01 -3.2590e-01 -8.7121e-01  4.9328e-01
  -4.1873e-01  6.5945e-01  7.9104e-01 -8.2476e-01  2.6031e-01  4.8933e-01
  -3.3718e-01  4.0049e-01 -2.7271e-01 -1.1791e-02]
 [ 8.1929e-01 -8.3415e-01  1.3860e-01 -2.3609e-01 -3.4375e-01 -2.1902e-01
  -7.9516e-01 -8.8834e-01  2.0216e-01  3.3851e-01  4.9489e-02 -8.9054e-01
  -7.2747e-01 -7.4295e-01  2.3938e-01  1.1621e-01]
 [-6.1639e-01  7.5187e-01  7.0452e-01 -2.7286e-01  9.2494e-01  4.9055e-01
   3.3894e-01 -5.1366e-01 -5.6170e-01  5.7891e-01 -1.4856e-01  2.9593e-01
   7.8115e-01 -6.6724e-01 -7.5174e-01 -8.7672e-01]
 [-1.6593e-01  7.0333e-01  2.9573e-01 -4.5338e-01  4.2275e-01 -1.5323e-01
   8.2631e-01  4.7521e-01 -8.8802e-01  8.9822e-01 -2.1015e-01  9.8144e-01
  -9.7821e-02 -2.9227e-01 -3.2159e-01 -1.8459e-01]
 [ 4.4304e-01  5.2856e-01 -6.2390e-03  9.0494e-01 -8.9709e-01  9.1111e-01
   6.1228e-02 -3.9726e-01  2.1510e-01 -8.2966e-01 -3.3098e-01 -1.5894e-01
  -8.9042e-01  8.6811e-01  6.9326e-01  8.5350e-01]
 [-2.3850e-01  4.4801e-01  1.1341e-02  3.0863e-01 -7.6927e-01 -8.5217e-01
   8.1384e-01  3.2852e-01  7.6421e-01  5.2198e-02 -4.7186e-01 -1.6695e-01
   8.6040e-01  9.6504e-01 -8.0699e-01  7.4990e-01]
 [ 1.1510e-01  4.7492e-02  8.5763e-01  4.7251e-01 -1.0840e-01  5.8450e-01
  -3.4602e-01  7.0286e-01 -1.9855e-01  5.1067e-02 -2.6019e-01 -4.6402e-01
   9.0602e-01 -2.4496e-02 -1.9647e-01  6.8321e-01]
 [-3.1256e-01  1.8882e-01 -1.8626e-01 -9.5382e-01 -1.2570e-01 -5.5593e-01
   9.3906e-03 -6.4023e-01  4.5628e-01 -5.6389e-01  1.9626e-01 -4.2495e-01
   9.5799e-02 -8.3729e-01  5.0486e-01  4.5679e-01]
 [ 5.4105e-01  9.7240e-01  7.3238e-01 -1.7555e-01  9.8304e-01  2.2793e-01
   7.3502e-01 -3.5448e-01 -5.7251e-01 -9.8898e-01 -6.7409e-01 -8.6173e-01
   9.0973e-01 -4.3610e-01 -7.9346e-02  3.5748e-01]
 [-3.2613e-01 -8.5365e-01 -4.2627e-01 -8.5411e-01 -1.8742e-01 -4.0811e-01
  -8.1096e-01 -3.8777e-01 -6.7433e-01 -9.6309e-01 -3.5188e-01  7.2620e-01
  -8.6632e-01  4.7688e-01  9.2204e-01  9.0972e-01]
 [ 1.4599e-01 -6.7649e-01  4.7460e-01  4.2456e-01 -9.5243e-01  5.3107e-01
  -5.7644e-01  9.7196e-01  8.2234e-01 -1.2231e-01 -4.5392e-01  8.4702e-01
  -5.2927e-01  4.1573e-01  3.6789e-01  2.5469e-01]
 [-5.2876e-01  4.5029e-01 -8.5940e-01 -5.3603e-01  3.2723e-01 -1.7817e-01
  -2.5618e-01  7.8707e-01 -3.1371e-01 -9.6584e-01  6.9578e-01 -6.9389e-01
   6.3072e-01 -6.3712e-01  1.1379e-01 -8.5808e-01]
 [-4.5905e-01 -1.4716e-01  9.2928e-01 -6.5541e-01 -7.5066e-01 -5.6311e-01
   3.7360e-01 -3.7815e-01  6.6197e-01  6.9825e-01 -7.0328e-02 -8.9601e-01
  -2.7267e-01  8.4074e-01 -4.7072e-01 -4.0431e-01]
 [ 3.2063e-01 -4.6382e-02 -6.3139e-01 -7.5954e-01 -7.4584e-01 -2.2941e-01
  -7.2626e-01 -6.4600e-01 -7.1837e-01  6.2969e-01  5.6220e-01  1.9946e-01
   1.4380e-01  2.4492e-01 -5.4462e-02  3.4087e-01]
 [-4.6667e-01  5.3064e-01 -9.3376e-01  2.6876e-01  9.2838e-01 -2.2303e-01
  -5.4034e-01  7.1923e-01 -7.2628e-01  6.3906e-01 -4.2759e-01  8.0766e-01
   8.7385e-01 -9.2023e-01 -6.5295e-01 -1.0196e-01]
 [-5.5420e-01 -9.6628e-02 -8.0272e-01  8.4440e-01 -1.6767e-01 -8.8948e-02
   5.4986e-01  6.0268e-01 -7.2436e-01 -5.9803e-01 -2.3446e-01  7.6877e-01
  -8.2446e-01  9.4917e-01  4.8786e-01 -9.9913e-01]
 [-3.1306e-01  6.5557e-01  8.2237e-01 -1.3695e-01 -3.1248e-01 -5.6048e-01
  -9.3869e-02  6.9140e-01  5.6217e-01 -6.7065e-01 -4.6242e-01 -2.8499e-01
   5.8747e-01  5.3860e-01 -8.5997e-01 -7.0271e-01]
 [ 1.0992e-01 -8.4102e-01 -5.6798e-01  5.1188e-01  3.9317e-01  8.9966e-01
  -9.6211e-01 -8.8059e-01  3.0289e-01  5.6278e-01 -2.8523e-01  5.4102e-01
   3.6782e-01 -8.7921e-01  9.0726e-01  1.1724e-01]
 [ 4.5779e-01 -1.8592e-01  9.0455e-01 -7.3522e-01 -2.7764e-01 -8.6672e-01
  -7.4302e-02  6.4416e-01 -8.9220e-01 -2.0915e-01 -5.5004e-01 -2.1517e-01
   7.9884e-01 -9.0244e-01  8.5559e-01  4.4280e-01]
 [ 9.9256e-01 -9.2461e-01  6.8417e-02 -2.7212e-01  7.2121e-01 -1.3180e-02
  -1.0741e-01 -5.2247e-01  2.0921e-01 -8.8472e-01  8.7516e-02 -8.9593e-01
  -8.6093e-01  2.7306e-01  3.6764e-01 -9.8160e-01]
 [-1.8126e-01 -5.2408e-01  2.7567e-01  9.4384e-01  1.2027e-01  6.9159e-01
   6.4503e-02 -9.8255e-03 -5.6169e-01 -8.9991e-01  3.7794e-01  5.7301e-01
  -7.9297e-01  7.5310e-01  1.2577e-01  1.1592e-01]
 [-9.8046e-01  6.4877e-01 -2.3591e-01 -5.3846e-01 -3.2650e-01  9.7194e-01
   7.3318e-01  2.0930e-01 -4.7195e-02 -7.3397e-02  7.4782e-02  3.0050e-01
   1.3139e-01 -1.0654e-01 -2.5484e-01  5.0851e-01]
 [ 6.3311e-01  6.8864e-01 -1.1741e-01  2.0185e-01 -8.0493e-01  1.5307e-01
  -7.4802e-01 -7.6553e-01 -9.7074e-01 -3.5938e-01  9.4232e-01 -6.2003e-01
  -1.8496e-01 -5.0121e-01 -4.4048e-01  3.1813e-01]
 [-6.1886e-01  7.0079e-01 -1.5979e-01  7.4348e-01  3.8990e-03 -7.1680e-01
  -5.8083e-01  6.0252e-01 -7.4565e-01  6.2823e-01 -9.6950e-03 -5.3478e-01
   6.8600e-01  1.2149e-01 -2.7426e-01  5.5953e-01]
 [-6.3224e-01  4.9400e-01 -3.2849e-01  8.6352e-01  7.8521e-01 -6.6080e-01
  -1.9629e-01 -1.9956e-01 -7.5727e-01 -8.1353e-01  1.6050e-01 -7.3322e-01
   6.2505e-01 -6.6148e-01  7.5693e-01  6.1340e-02]
 [ 6.5538e-01  5.6717e-01  7.4542e-01  4.4044e-01  5.3491e-01 -4.3830e-01
   5.5430e-01  9.8802e-02 -9.5651e-01 -4.8280e-01  5.1401e-01 -3.0602e-01
  -8.9441e-01 -9.8217e-02  5.2371e-01 -4.8227e-01]
 [-6.1240e-01 -2.6934e-01  5.6159e-01 -5.5657e-01 -6.7377e-01 -2.1562e-01
   6.1431e-01  7.7760e-01 -9.7329e-01 -2.2879e-01 -6.9004e-01 -2.0962e-01
   4.5690e-01  6.9315e-01 -7.4118e-01 -7.8564e-01]
 [-5.1342e-02  6.5857e-01 -7.9924e-01 -2.2473e-01 -4.4239e-01 -4.2023e-01
  -8.3766e-01 -1.8634e-01  8.3127e-03  9.0494e-01  5.5447e-01 -6.6858e-01
  -5.4863e-02 -9.2600e-01 -8.7856e-01 -8.1810e-01]
 [-4.9310e-01 -9.8774e-02 -4.8948e-01 -7.9995e-01  4.6845e-01  8.2769e-01
  -6.7903e-01  3.3755e-03 -9.8513e-02 -1.5662e-01  6.2679e-01 -2.6806e-01
  -4.0311e-01  9.6478e-01  1.6970e-01  3.9377e-01]
 [-9.1638e-01  8.7004e-01 -5.6016e-01 -4.0992e-01 -8.8241e-01 -1.5518e-01
  -7.1721e-01 -4.7491e-01 -2.5141e-01  9.3258e-01 -2.2187e-01 -7.8971e-01
  -6.1836e-01  3.9989e-01  7.9495e-01 -8.7950e-01]
 [-2.3699e-01  2.4857e-02 -5.3848e-01 -2.6538e-02  9.6977e-01 -4.1975e-01
  -7.1968e-01 -3.0415e-01 -1.3613e-01  4.9312e-02 -6.4847e-01  8.8825e-01
   5.2088e-01  4.1557e-01 -6.0850e-01  5.8206e-01]
 [ 8.3029e-01 -9.9040e-01  7.4847e-01 -1.9284e-01  1.2612e-02  4.9255e-01
  -9.3842e-01  3.4440e-01 -5.5743e-01  4.5095e-01  9.3277e-01 -2.1283e-01
   2.3237e-01 -1.7599e-01  8.2417e-01  8.2466e-01]
 [ 3.4622e-01  3.1489e-01 -2.4202e-01 -2.8379e-01  9.4875e-01 -1.4469e-01
   6.5039e-01  2.4760e-01 -3.8783e-01 -2.3472e-01 -5.2462e-01  7.8220e-01
  -9.1364e-01 -1.8417e-01  5.8200e-01 -6.6599e-01]
 [-2.5185e-01  6.9274e-01  2.3029e-01  1.0555e-01  5.7639e-01 -2.0164e-01
  -5.4455e-01  6.5932e-01 -8.0118e-01 -7.7664e-01  2.0396e-01 -9.6512e-01
   3.8121e-01 -7.3031e-01 -1.6931e-01  6.0494e-01]
 [-9.7900e-01  6.1834e-01  2.2162e-01 -3.4483e-01  4.9059e-01 -2.7238e-01
   4.4524e-01 -8.5153e-01 -9.8583e-01 -6.9257e-01 -4.3542e-01 -8.9919e-01
   4.2901e-01  6.3953e-01 -7.8727e-01  7.1997e-01]
 [ 2.7299e-01 -6.3033e-04  3.3089e-01 -7.1413e-01 -8.6825e-01 -6.5748e-01
   6.1689e-01  4.7930e-01 -8.2978e-01 -4.2164e-02 -2.8583e-01  6.3012e-01
  -6.6739e-01 -5.1460e-01  1.2121e-01 -7.6113e-02]
 [-9.0129e-01 -7.2085e-01  1.1806e-01 -8.7881e-02 -1.2168e-01  6.0688e-01
  -8.0398e-01  4.6524e-01 -3.6232e-01 -7.7897e-01 -9.8532e-02 -5.2777e-01
  -2.7978e-01  2.8425e-01 -1.8431e-01 -7.0499e-01]
 [-8.0470e-01  3.0530e-01  3.7801e-01 -9.5520e-01 -6.8061e-01  8.4449e-01
  -1.2110e-01  8.2056e-01  2.7871e-01 -2.8840e-01  9.8795e-01  9.2752e-02
  -6.3185e-01  2.8625e-03 -9.7706e-01  2.6350e-01]
 [ 7.8688e-01 -3.8611e-01 -6.3197e-01  5.9985e-01 -2.1273e-01  8.0782e-01
   7.1840e-01 -1.4732e-01  7.9586e-01  8.1117e-02 -5.1242e-01  1.3954e-01
  -7.7484e-01  8.7818e-01 -4.2550e-01  3.0137e-02]
 [ 1.5815e-02  1.2862e-01  8.4470e-03  6.2587e-01 -9.2670e-01  7.1205e-01
  -2.8515e-01  3.0175e-01 -3.0415e-01  2.0291e-01 -8.8387e-01 -3.8860e-01
  -2.6928e-01  9.7340e-01 -4.7392e-01 -1.4097e-01]
 [ 1.5077e-01  5.3743e-01 -9.1113e-01 -9.1973e-01 -2.7664e-01 -2.2545e-02
   7.3969e-01 -1.6521e-01 -3.4304e-01  9.6684e-01 -5.1963e-01  2.6070e-01
  -3.5806e-01  5.8881e-01 -4.5308e-01 -1.1360e-02]
 [-7.0060e-01 -9.2181e-01  6.2121e-02  8.9400e-01 -3.6137e-01  2.9260e-01
  -8.0068e-02 -1.8813e-01 -2.6472e-01  8.1109e-01  6.9233e-01  3.5995e-01
  -4.8647e-01  4.6583e-01 -7.1881e-01  6.8654e-01]
 [-6.9918e-01 -8.8691e-02 -4.1887e-03  4.0379e-01 -2.2027e-01 -5.8269e-01
  -8.0829e-01 -5.2146e-01  4.9828e-01  8.2174e-01 -9.1158e-01  6.8342e-01
   2.9064e-01  5.6255e-01 -6.2162e-01  2.7160e-01]
 [-7.8267e-01 -3.6969e-01  5.3469e-01 -9.3196e-01 -5.2194e-01 -1.4318e-01
   5.3021e-01 -4.0724e-01 -2.6821e-01  4.2666e-01 -3.6904e-01 -8.7478e-01
  -5.9525e-01  4.5330e-01 -6.5902e-02 -6.3604e-01]
 [ 4.9449e-01  8.8341e-01 -3.3359e-01 -5.8293e-01 -2.4984e-01 -4.7964e-01
   8.6230e-02  6.9956e-01  6.9536e-01 -1.0921e-01 -2.0937e-01 -6.2048e-01
  -6.3655e-01 -1.6154e-01 -9.8116e-01  8.2149e-01]
 [-5.5159e-01 -5.5097e-01  3.1388e-01 -5.9642e-01  7.0748e-01 -9.9695e-02
  -9.1005e-01 -9.8415e-01 -1.4070e-01 -4.4388e-01 -8.5232e-01 -3.5408e-01
   1.5313e-01  4.0027e-01  9.1847e-01  8.7339e-01]
 [ 3.6916e-01 -9.8648e-01 -1.3962e-01 -7.9531e-01 -9.8272e-01  3.6302e-01
   3.9307e-01 -8.3588e-01  8.6732e-01 -7.3824e-01 -6.5062e-01  7.1361e-01
   9.0638e-02 -4.4509e-01  9.6294e-01 -5.4756e-01]
 [-1.9307e-01 -8.4549e-01  4.7770e-02 -2.5581e-01  4.5239e-01  6.1967e-01
   5.6861e-01 -6.3941e-01  5.4551e-01  3.2868e-01 -7.5307e-01  6.1750e-01
   8.6538e-01  2.4336e-02  9.5804e-01  4.4517e-01]
 [-4.3088e-01 -7.6580e-01 -6.8969e-01 -4.4192e-01  4.1993e-01 -8.2310e-01
  -3.2758e-01 -9.6570e-01  2.5088e-01 -4.9025e-02 -2.2149e-01  5.4862e-01
   1.0929e-01  6.0333e-01 -6.6599e-01  9.3476e-02]
 [ 4.8030e-01  3.7129e-01  2.8109e-01  7.4789e-01  4.1600e-01  2.9178e-01
   2.6573e-01  8.0670e-01  8.8158e-01 -5.7406e-01  3.9045e-01 -7.0437e-01
   8.4488e-01 -5.6924e-01 -8.7330e-01  3.2064e-01]
 [ 3.7515e-01 -4.6279e-01 -8.2206e-01 -3.1039e-01  3.5388e-02  1.6511e-01
   5.5628e-01  1.3224e-01  3.5037e-01  9.9670e-01 -4.1658e-01 -7.5469e-01
  -6.5564e-01 -3.1651e-02  1.5861e-01 -2.8624e-01]
 [-5.5383e-02  5.1961e-01 -2.0374e-01  6.5252e-01 -2.0360e-01 -3.9327e-01
  -2.8256e-02  4.6032e-01 -9.0547e-01  2.5246e-02 -4.2541e-01  3.2294e-01
  -8.6020e-01 -5.2363e-01  6.8854e-01 -2.7670e-01]
 [ 5.8361e-01  2.1204e-01  9.5150e-02 -5.6014e-01  8.3043e-01 -4.6204e-01
  -1.5658e-01 -1.7242e-01 -5.7491e-01 -8.4047e-01 -4.2729e-02 -3.2419e-01
  -2.3715e-01 -1.7599e-01 -4.7824e-01 -3.4036e-01]
 [-8.3647e-01  4.7251e-01 -1.4774e-01 -4.5448e-01  5.5423e-01 -1.0165e-01
  -5.7746e-01  4.2016e-01  6.5343e-03  6.2590e-01 -7.9146e-01 -2.1879e-01
  -3.2000e-01 -8.1659e-01 -4.7427e-01  8.2504e-01]
 [ 1.7557e-01  1.1269e-01 -7.5213e-02  2.0138e-01 -2.7883e-01 -8.9057e-01
  -8.3522e-01  2.0337e-01 -8.5959e-01 -4.6819e-01  4.7802e-02  7.9959e-01
  -5.7223e-02  3.3511e-01 -3.9194e-01  3.3771e-01]
 [-2.7708e-02  6.2059e-01  9.8028e-01  6.4047e-01 -2.6172e-01 -4.1163e-01
   5.3526e-01 -6.0415e-01  5.6412e-01 -6.6688e-01  3.4848e-01 -2.6459e-01
   9.5536e-02 -7.3151e-02  6.3124e-02 -7.8377e-01]
 [ 3.0167e-01  9.7900e-01 -2.6716e-01  4.1619e-02 -2.5613e-01  7.3991e-01
  -5.1585e-01  3.5362e-01  4.6477e-01 -8.1210e-01 -2.6326e-01 -9.6724e-01
  -4.2199e-01 -4.7702e-01  4.5744e-01  2.6410e-01]
 [-9.3831e-01  4.5123e-01 -2.0423e-02 -2.5228e-01 -1.0789e-01 -5.6441e-01
   8.2500e-01 -8.9334e-01  5.1493e-01 -1.8349e-01 -6.7475e-01 -1.4843e-02
   5.5160e-01 -7.3456e-01  9.1215e-01 -4.8445e-01]
 [ 4.8970e-01  7.1539e-01 -3.2093e-03  5.6924e-01 -3.9542e-01  4.1880e-01
   3.9924e-01 -2.1473e-01  2.7532e-01 -5.5504e-01 -2.9976e-01  8.6836e-01
   3.7949e-01  3.1535e-02 -2.0691e-01  7.9021e-02]
 [ 5.1343e-01  8.5213e-02  4.9777e-01  3.6906e-01 -9.6549e-01  3.4467e-01
  -4.8855e-01 -1.5351e-01 -4.2823e-01 -1.0585e-01 -4.9076e-01 -8.7921e-01
  -8.1453e-01 -7.7386e-01 -2.0359e-01 -6.4866e-01]
 [ 6.4716e-01 -3.5289e-01  5.9738e-02  4.5782e-01 -7.4380e-01  8.3007e-01
   1.2729e-01 -5.0235e-01 -2.2471e-01 -2.0103e-01 -3.9531e-01  4.4931e-02
   2.5255e-01  5.2268e-01 -6.8084e-01 -9.4101e-01]
 [-5.6781e-01 -1.9281e-01 -3.3702e-01  2.6674e-01  1.5167e-01  9.9652e-01
  -4.9421e-01  9.9701e-01 -8.8588e-01  7.1684e-03  6.5535e-01  3.2497e-01
   9.5934e-01 -9.8996e-01 -9.9260e-01  5.4655e-01]
 [ 9.2642e-01 -4.3530e-01  8.4377e-01 -1.3214e-01 -3.1235e-01  5.6998e-01
   1.5108e-01 -9.5516e-01  5.6593e-01 -5.6783e-01 -4.1376e-01  9.1010e-01
   3.7192e-01  8.0701e-01  1.6394e-01  7.6471e-01]
 [-5.8990e-01  7.2703e-01  1.4036e-01  8.8751e-01 -2.9178e-01  3.1905e-01
  -9.7998e-01  1.6458e-01 -3.9920e-01 -7.0928e-01  6.0348e-01 -8.7229e-02
  -5.7567e-01  2.0188e-01  3.7999e-01 -1.4972e-01]
 [ 8.7901e-01 -4.1844e-02  3.5530e-01  3.7282e-01  5.2607e-01  8.8707e-01
  -4.2087e-01  1.7381e-01  8.8680e-01  9.6117e-02  3.7190e-01  6.0423e-01
  -6.6274e-01  5.6938e-01 -2.0228e-02 -8.2124e-01]
 [ 5.5517e-01 -3.5064e-01 -7.2753e-01 -6.3027e-01 -5.8054e-02  2.7843e-01
   3.4395e-01 -2.1100e-01  2.6106e-01 -1.9795e-01  9.5066e-01 -6.2043e-01
  -6.6497e-01 -9.4226e-02 -1.9497e-01  9.6031e-01]
 [-1.3109e-01  5.2745e-01 -7.6604e-01 -5.3268e-01 -9.7482e-01  3.3041e-01
   6.2878e-01 -3.1160e-01 -8.8415e-01 -1.0132e-01 -2.1010e-01 -1.9243e-01
  -7.0265e-02  2.1237e-01  9.9669e-01  2.3526e-01]
 [-8.3721e-01 -5.2157e-01 -3.0903e-01 -6.3972e-02 -8.8816e-01 -5.0643e-01
  -8.0459e-01 -2.5540e-01 -8.1468e-02  1.5311e-01  1.2265e-01  8.2536e-01
   6.7425e-01  1.6387e-01  2.4580e-02 -6.0726e-02]
 [-6.6138e-01 -9.0395e-01 -7.1999e-02 -3.9778e-02 -3.4649e-04  4.5399e-01
   8.2739e-01  6.4812e-01  9.5306e-01 -6.7308e-02  7.0807e-01 -5.8356e-01
  -8.7761e-01  5.0042e-01  7.1781e-04 -5.3083e-01]
 [-2.1627e-01 -9.9289e-01  8.0169e-01 -6.3456e-01  7.2456e-02 -9.8558e-01
   7.0225e-01 -2.8902e-01  4.8715e-01  3.5844e-02 -9.5394e-01 -2.7970e-01
   1.9448e-01 -3.4222e-01 -2.3801e-01  7.2365e-01]
 [ 2.7283e-01 -5.4879e-01  7.4165e-02 -7.3266e-01 -6.4048e-01 -3.6273e-01
   5.5474e-01 -1.3801e-02  4.5510e-01  3.8071e-02 -2.9725e-01 -3.8868e-01
  -2.8948e-01 -4.1917e-01 -8.1359e-01 -2.8424e-01]
 [ 8.8682e-01  9.3267e-01 -2.4175e-01  6.5779e-01  8.2715e-01 -2.8608e-01
  -4.9662e-01  2.1466e-01 -1.8436e-01  9.5134e-01 -7.3130e-01 -2.1472e-01
  -2.7497e-01 -1.0539e-01  7.9189e-01  2.7027e-01]
 [ 1.3436e-01 -3.7890e-01  7.3385e-01 -5.1530e-01 -4.2366e-01  6.2037e-01
  -5.8501e-01 -5.7111e-02 -2.8795e-01  7.9416e-02 -5.5297e-01 -3.7907e-01
  -8.0980e-01  6.0708e-01 -7.4899e-01  7.8179e-01]
 [-7.5762e-02 -4.4775e-02  3.6189e-01  8.3746e-01 -7.3255e-01 -6.5891e-01
   2.9556e-01  3.3087e-01  5.8882e-01 -5.7206e-02 -2.9787e-01 -8.7824e-01
   8.4716e-01 -1.1199e-01  3.8394e-01  7.7555e-01]
 [-5.2709e-01  7.7527e-01  9.8620e-01 -2.6559e-01 -7.3010e-01  9.9212e-01
  -3.4583e-01  2.9242e-01 -8.0389e-01 -2.4591e-02 -2.8747e-01 -2.6215e-01
   5.0327e-01  8.5754e-01 -8.3169e-01  9.1968e-01]
 [-8.8468e-01  3.0317e-02  3.3600e-01 -3.0731e-01  6.0271e-01  8.4490e-01
  -3.6528e-01 -2.2562e-01 -8.6284e-01 -1.9529e-01 -7.9517e-01 -9.2215e-01
   4.4380e-01  8.3341e-01 -5.6359e-01 -4.4669e-01]
 [-8.7764e-01 -2.3779e-01 -8.6697e-01  4.6730e-01  6.7043e-01 -2.6425e-01
  -5.2919e-01  2.3913e-01  2.1256e-01 -6.7715e-01  8.2107e-01  4.5553e-01
  -3.0784e-01 -4.6800e-01  1.1029e-01  3.6088e-01]
 [-3.4832e-01 -9.7370e-01  2.1607e-01 -9.1055e-01  3.2358e-01 -8.1210e-01
  -2.4672e-01  7.9577e-01  2.6369e-02 -6.8220e-02 -9.5321e-01  5.6861e-01
   3.4301e-01 -5.7836e-01  2.8813e-01  9.6107e-01]
 [ 7.8849e-01 -4.8586e-01 -6.3641e-01  6.0216e-01  7.5110e-01  4.9110e-01
  -7.6349e-01  3.2289e-01 -9.2983e-01  9.1359e-01  9.8834e-03 -2.0466e-01
  -9.1432e-01  5.3146e-01  4.5757e-01  3.4989e-01]
 [ 2.9195e-01  9.5564e-01  8.0450e-01 -5.7146e-02  7.4079e-01 -8.7565e-01
   2.0168e-02 -8.7891e-01  7.6456e-01  9.7751e-01 -8.0261e-01  7.5123e-01
   5.7311e-01  6.3827e-01  5.1064e-01  4.7271e-02]
 [-7.2030e-01  5.2710e-01  8.8107e-01  5.9330e-01 -3.1747e-01  8.6127e-01
   1.7156e-01 -8.3294e-01  7.5500e-01  3.1466e-01  9.2432e-01 -3.1574e-01
  -6.1575e-02  4.5585e-01 -7.4635e-02 -3.4104e-01]
 [ 4.2102e-01  1.3039e-01 -8.1205e-01 -8.3515e-01 -2.4195e-01  5.5105e-01
  -6.0842e-01  5.8873e-01 -4.5768e-01 -3.8853e-01  6.6436e-01  8.1456e-01
   3.8899e-01  4.3861e-01  3.9925e-01 -2.3225e-01]
 [-6.8433e-01 -9.9915e-02 -5.3140e-01  3.0325e-01  5.0911e-01  7.8172e-03
  -9.2853e-01  3.7787e-01 -2.3675e-01 -2.4918e-01 -5.9221e-01 -3.1959e-01
   4.5007e-01 -7.3699e-01  9.9593e-01  6.3417e-01]
 [-1.8314e-01 -5.9015e-01 -6.9297e-01  7.4090e-01 -2.5673e-01 -4.9551e-01
  -3.2859e-01  3.2419e-01  2.2801e-01  5.9854e-03 -7.4288e-01  5.1046e-01
   2.4360e-02  1.5265e-01  2.8724e-01  7.2357e-01]
 [ 2.7762e-01 -4.4649e-01 -1.9765e-01 -8.3379e-01  2.5244e-01 -2.0966e-01
  -5.1368e-01  6.1671e-02 -9.3614e-01  7.4711e-01  6.6563e-01  4.4152e-01
   2.1619e-02 -1.1553e-01 -6.9737e-01  7.0736e-01]
 [-6.9798e-01 -6.8403e-01  4.2705e-01 -9.9423e-01 -3.9304e-01 -1.6113e-01
   7.6116e-01 -9.6807e-01  9.3831e-01  5.4879e-01  5.3953e-01 -3.2165e-01
   7.7685e-01  6.1246e-02  2.8400e-02  9.6643e-01]
 [ 6.1821e-01 -8.0742e-01  3.8472e-01 -4.2357e-02 -3.0209e-01  3.2046e-01
   1.3772e-01  9.8608e-02  1.4686e-01  6.7163e-01 -2.2895e-01  9.6295e-01
  -4.2380e-01 -1.6853e-01 -2.0027e-01  8.1091e-01]
 [ 2.0614e-01  8.7895e-01  8.5096e-01  5.7515e-01  7.9575e-01 -5.7888e-01
   9.8024e-01  9.3571e-01  7.8985e-02  2.1410e-01 -6.4595e-01 -1.6627e-01
   2.2095e-01 -2.9187e-01  2.1482e-01  8.9464e-01]
 [ 3.3744e-01 -1.0737e-01  6.7355e-01 -1.3930e-03  3.4411e-01 -1.3786e-01
   4.5272e-01 -1.1465e-01 -3.1757e-01  8.7583e-01 -3.7794e-01  9.6902e-01
   4.7865e-01  9.0859e-01 -7.7197e-01 -4.0936e-01]
 [ 5.5151e-01  1.6241e-01  3.0888e-01 -7.2488e-01  5.5082e-01  5.6251e-01
  -6.7932e-01  8.1907e-01  2.0571e-01 -4.5574e-01  7.5200e-01  4.4671e-01
  -6.5605e-01 -2.0132e-01  7.3522e-01 -8.6542e-01]
 [-9.5002e-01  9.3830e-01  6.2760e-01 -6.0903e-01 -6.2925e-01 -7.6281e-01
   6.0561e-01 -3.3103e-01  7.0427e-01  4.8001e-01 -6.4737e-01 -5.1179e-01
   4.3530e-02  8.3503e-01 -2.0368e-01 -5.7344e-01]
 [ 1.3875e-01 -2.2707e-01 -8.4946e-01  9.2255e-01  3.5890e-01 -8.1183e-01
   3.1498e-01  1.8463e-01  3.3644e-01  7.9704e-02  2.8262e-01  6.6608e-01
  -9.8105e-02  6.6766e-02  1.5288e-03 -7.1112e-02]
 [ 3.0725e-01  7.9930e-02  4.7531e-01 -9.0269e-01  2.1641e-01 -5.6726e-01
  -1.6273e-02 -7.6264e-01 -4.4295e-01  1.3395e-01 -3.4233e-01  9.4911e-01
  -3.2641e-01  5.2994e-01 -7.7920e-02  8.8475e-01]
 [ 2.7492e-01 -7.0098e-01  4.3047e-01 -1.8821e-01  8.8661e-01 -6.4067e-01
  -2.7148e-01  8.9202e-01  4.3745e-01  1.1089e-01  3.0388e-01 -1.2720e-02
  -1.0390e-01  7.1158e-01 -5.6075e-01 -9.7768e-02]
 [ 2.7037e-01 -3.5202e-01  4.6497e-02  4.8196e-01  7.2774e-01 -6.0900e-02
   8.4614e-01 -1.8225e-01  3.0234e-02 -3.7259e-01 -4.4347e-01  5.2686e-01
  -7.4084e-03  7.3827e-01  8.7970e-02  9.8936e-01]
 [-8.7674e-01 -5.0083e-01  2.5066e-01 -6.0353e-01 -7.0760e-01  9.8420e-01
  -7.8988e-01  4.7450e-01  6.5170e-01  6.7513e-01 -7.8549e-01 -2.4173e-01
  -9.9356e-01 -6.6227e-01  4.6914e-01 -1.2836e-01]
 [-3.3556e-01 -4.2663e-01 -2.3896e-01  3.7990e-01 -3.8330e-01  5.6140e-01
  -2.3173e-02  4.0303e-02  4.1204e-01 -8.7702e-01  9.9552e-01 -6.3644e-01
  -3.1174e-01  8.5821e-01  5.4683e-01 -1.3888e-01]
 [ 1.6744e-01 -9.3404e-01 -7.6577e-01  8.5381e-02 -2.1258e-01 -9.6784e-01
   9.0281e-01  8.2734e-01 -1.5167e-01  5.8016e-01  4.5877e-01  7.8512e-01
  -6.0715e-01 -5.1933e-01  6.3648e-01  4.7320e-01]
 [-6.3033e-01 -6.3587e-01 -2.7815e-01  3.2895e-01  3.8009e-01  8.1223e-01
   4.1854e-02  8.0375e-01  4.9338e-01  4.3868e-01  1.2815e-01  1.1461e-01
  -1.2191e-01  1.7926e-01  3.6024e-01  3.6229e-02]
 [ 5.2714e-01  6.5415e-02 -3.8312e-01  9.9735e-01 -9.6803e-01  1.3683e-01
  -3.3321e-01 -6.9921e-01  4.7753e-01  8.5098e-01 -3.1348e-01  3.2112e-02
  -9.2670e-01 -4.3221e-01 -1.0478e-01 -9.3930e-01]
 [ 6.0804e-01  2.8770e-01 -8.8250e-02 -6.9524e-01 -1.7005e-01  3.9442e-01
  -7.8564e-02 -7.0754e-01  1.2121e-01  1.7218e-01  2.6971e-01 -2.3277e-01
  -8.1119e-01 -3.4753e-01 -8.6795e-01  3.7812e-01]
 [-9.3717e-01 -7.8352e-01 -3.3920e-01 -7.5032e-01  2.2927e-01  9.4349e-01
   7.4445e-01 -9.0493e-01  6.5907e-02  4.5286e-01 -6.1845e-01 -9.3756e-01
  -5.5231e-01 -6.3599e-01  4.3765e-01  3.7365e-01]
 [ 5.1750e-01 -5.8977e-01 -2.5407e-01 -2.2771e-01 -1.9879e-01  3.8295e-01
  -4.8497e-01 -4.2206e-01  7.6501e-01  5.7716e-01  6.2091e-01  3.8884e-01
   8.2908e-03 -5.8060e-01  2.6009e-01 -1.6988e-01]
 [-2.3054e-01 -9.0652e-01  2.6480e-01 -6.4635e-01  7.3689e-01  9.2952e-01
  -2.5148e-01  1.7043e-01  4.4847e-01  6.4381e-01  6.2272e-01  6.3266e-01
   5.1609e-01  8.3916e-01  3.9710e-02 -5.1819e-01]
 [-3.0864e-01 -6.3751e-01 -8.7662e-01 -6.6636e-01  4.6218e-01  3.3182e-02
  -3.9846e-01 -1.2606e-01 -2.1846e-02  4.6443e-01  1.3270e-01  9.3292e-01
   5.2098e-01 -4.0368e-01 -2.5160e-01 -1.0220e-01]
 [ 7.6772e-01 -5.0146e-01  5.1539e-01  1.9055e-01  1.3298e-01 -2.8923e-01
   5.3945e-01 -8.8897e-02  9.1098e-01  9.7755e-01 -8.1225e-01 -2.5909e-01
   4.1195e-01 -7.0871e-01  2.3500e-01  3.6645e-01]
 [-2.8832e-01  7.6832e-01 -6.5442e-01 -9.7454e-01  4.2258e-01 -6.9954e-01
  -9.8669e-02 -1.9408e-01  4.7523e-01 -4.4445e-01  7.4297e-01 -6.4761e-01
  -3.4334e-01 -7.5194e-01 -3.0102e-01 -2.3367e-01]
 [ 7.3144e-01 -8.1455e-01 -9.6873e-01 -5.0708e-01  2.7914e-01 -2.1940e-01
   3.8461e-01  3.1524e-01 -9.3616e-02  3.4548e-01  5.0731e-01 -8.8818e-01
  -6.8458e-01 -1.1548e-01  2.4859e-02 -4.7431e-01]
 [-8.8609e-02  1.5452e-01 -5.5284e-01 -9.2583e-01 -5.9474e-01 -2.7368e-02
   8.3143e-01  3.3210e-01 -4.9768e-01  6.2652e-01  9.6302e-01  8.4542e-01
   9.0051e-01 -9.8890e-01  1.8190e-01  5.0998e-01]
 [-1.6275e-01 -1.7972e-01 -8.3318e-01  1.5621e-01  9.7645e-01 -1.2677e-01
   1.5337e-01 -2.7445e-01  2.1456e-01 -8.3282e-01 -3.1263e-01 -9.8091e-02
   4.2960e-01  2.1197e-01  6.6500e-01  3.3192e-01]
 [-5.7146e-02  3.1818e-02 -9.2536e-01 -6.5296e-02  9.6744e-01 -5.7960e-01
  -1.3191e-02  6.7324e-01 -6.2797e-01 -2.0316e-01 -5.4368e-01  5.2661e-01
   2.7868e-01 -7.7485e-01  9.5266e-01  2.7483e-01]
 [ 4.0852e-01  3.9232e-01  9.7683e-01  4.1699e-01 -3.3010e-02 -7.4478e-01
  -8.1548e-01 -2.0665e-01 -7.6246e-01 -1.6380e-01  1.0811e-01  2.5854e-01
  -7.2654e-02  2.4536e-01  8.3362e-02  3.0533e-01]
 [-3.3121e-02  5.6720e-01  6.9358e-01 -6.5921e-01  3.9408e-01 -4.6106e-01
  -2.3783e-01 -1.9970e-01  9.4687e-01 -1.0817e-01  1.3648e-01  8.5277e-01
   5.7081e-01 -1.8114e-01  7.5854e-01 -9.4260e-01]
 [ 3.1828e-01  6.4978e-01  7.4584e-01  4.8672e-01  3.7113e-01 -6.7708e-01
  -3.6405e-01  3.1769e-01 -6.1645e-01 -1.1226e-01 -1.5718e-01 -1.4766e-02
  -8.0627e-01  4.4255e-01  6.3052e-01  7.6119e-01]
 [ 6.3548e-01  6.7455e-01  9.7785e-02 -7.7486e-01  6.7661e-01 -6.5653e-01
  -5.2525e-02  8.4052e-01  7.8153e-01 -7.3395e-01  9.5361e-01  4.2715e-01
  -1.5341e-01 -3.4888e-01 -3.7931e-01  9.8763e-01]
 [ 4.3231e-01 -8.7189e-01  8.4032e-01 -3.1246e-01 -7.5433e-01  7.4601e-01
  -2.4398e-01 -3.2678e-01 -6.2502e-01  8.5145e-01  5.3808e-01  7.9654e-01
  -3.2610e-01  7.9466e-02  7.1681e-02  4.9073e-01]
 [-7.9393e-02 -8.3631e-01  9.3279e-01 -7.5780e-01  2.1358e-01  8.6815e-01
   6.0041e-01 -2.0681e-01 -5.4198e-01 -2.9259e-01  2.2115e-01 -1.5006e-01
   1.0527e-01  1.4557e-01 -7.7371e-01 -7.2844e-01]
 [-3.4113e-01 -6.1440e-01 -7.8619e-01 -9.7785e-01  6.6957e-01  2.9589e-01
  -8.1183e-02  4.3930e-01 -4.6168e-01 -9.0414e-01 -9.3515e-01 -6.0987e-02
  -3.6959e-01  9.0141e-01  7.0527e-01 -1.2277e-01]
 [-6.2214e-01 -2.0360e-01  7.0633e-01  6.2799e-01 -4.7861e-01 -7.3918e-01
   5.0953e-01  5.3241e-01  3.6912e-01 -3.8561e-01  5.0874e-01  9.5113e-01
   4.6266e-01  7.4369e-01 -8.3188e-01  1.5284e-03]
 [ 2.3454e-01  6.9429e-01  4.3056e-01  4.6998e-01  3.7330e-01 -9.9248e-01
   7.7942e-01 -2.5986e-01  1.9219e-01  7.7434e-01 -2.2223e-01  7.9127e-01
  -4.0174e-01 -5.2978e-03 -7.1527e-01 -2.4355e-01]
 [ 3.1151e-01  2.1718e-01  4.6946e-01 -2.0387e-01  4.6619e-01 -7.1184e-01
  -1.2352e-01 -5.1325e-01  1.7586e-01  8.6901e-01 -8.3825e-01 -1.8619e-01
   7.5118e-01  5.2230e-01  7.2511e-01 -9.5987e-01]
 [-8.0454e-01  2.4693e-02 -4.1396e-01 -4.9412e-01  2.4415e-01 -5.8356e-01
   3.2285e-03  8.8451e-01 -3.1760e-01 -1.8750e-01 -3.4573e-01  5.4014e-01
   1.6664e-01  7.9772e-01  4.2172e-01 -5.1899e-01]
 [-3.0526e-01  1.8208e-01 -9.2469e-02 -2.1852e-01  9.9377e-01  6.1698e-01
   8.5925e-01  8.2412e-01  7.8686e-02 -2.7768e-01 -8.1368e-01  8.9889e-01
  -9.7991e-01 -1.8296e-01  8.4339e-01  1.4807e-01]
 [ 2.5531e-01  2.6581e-01 -1.7769e-01  1.2588e-01  5.4096e-01 -6.4872e-01
  -2.4114e-01 -6.2768e-01 -7.3592e-02  7.9063e-01  2.4987e-01 -9.8299e-01
   5.7881e-01 -1.9631e-01  1.4659e-01 -6.1736e-01]
 [ 1.9036e-01  9.8197e-01 -5.3661e-01  6.6953e-01  3.4108e-01  3.5173e-02
   5.9086e-01 -4.2588e-01 -1.6033e-01  5.5678e-01  2.2617e-01 -7.3427e-02
   9.8108e-01  5.5347e-02 -5.7969e-01  2.3681e-01]
 [-8.9455e-01 -7.2694e-01  8.7027e-01  6.9426e-01 -1.9523e-01  2.8215e-01
  -2.2544e-01 -1.8487e-01 -7.1876e-01  3.8137e-01  6.7407e-02  6.9381e-01
  -2.8504e-01 -7.8855e-01 -5.6141e-01  7.1527e-01]
 [ 7.7544e-01  7.7219e-01 -9.4746e-01  9.1793e-01 -8.8925e-01  4.0539e-01
  -4.4625e-01 -2.4446e-01  6.1894e-01  2.0002e-01  7.3455e-01 -4.5395e-01
  -8.9151e-01 -4.1036e-01  8.0070e-01  4.2248e-01]
 [ 7.4995e-02 -8.8409e-01 -7.8151e-01  2.0421e-01 -6.9572e-01  7.5848e-01
  -8.8374e-01  2.3195e-01 -7.1112e-01  9.3702e-01 -5.8581e-01 -1.9430e-01
   4.6957e-01  8.8291e-01 -6.5160e-01 -7.5528e-01]
 [-5.2589e-01 -2.2578e-01 -6.8900e-01  6.8471e-02  2.2368e-01 -2.5183e-02
  -1.8022e-01  5.3832e-01  2.6246e-01  6.8506e-01 -5.1072e-01  7.1230e-01
  -3.9093e-01 -9.4255e-01  8.8095e-01 -3.4630e-02]
 [-3.3179e-01  4.1094e-01  3.4236e-01 -9.5576e-01  7.4611e-01  7.0120e-01
   6.8792e-01  8.6592e-01 -3.1941e-01 -9.3541e-01  3.9250e-01 -9.1479e-02
  -5.9617e-01 -2.2102e-01  3.6423e-01 -6.9128e-01]
 [ 1.2905e-01  7.6502e-01 -7.8124e-01 -8.0626e-01  2.5663e-01 -1.4913e-01
  -7.1483e-01 -8.4013e-01  8.4999e-01 -3.5784e-01  7.0273e-01  7.1644e-01
   2.3813e-01 -7.1947e-01 -1.0002e-01  2.6202e-01]
 [-4.9742e-01  5.6187e-01 -8.2435e-01 -5.8781e-01  3.7020e-01  7.0450e-01
   4.3478e-01  4.9811e-01  9.2113e-01 -4.2426e-02 -6.8548e-01  1.6738e-01
  -4.8282e-01  2.7507e-01 -9.5092e-01 -6.4411e-01]
 [-2.5192e-01  7.1451e-01 -8.6226e-01  5.8496e-01  8.5147e-01 -5.5422e-01
   1.7541e-01  8.9583e-01  7.3454e-01 -7.2364e-01 -4.9525e-01  6.9239e-01
  -4.9598e-02 -8.9266e-01 -8.6694e-01  2.9972e-01]
 [ 6.0798e-01  2.6980e-01 -7.8819e-01  1.7294e-01 -8.3498e-01  9.5430e-01
   1.9533e-01  9.5195e-01 -8.5476e-01 -8.8913e-01 -8.6861e-01  2.1798e-02
  -9.7616e-02 -7.8920e-01  1.5362e-02 -4.7457e-01]
 [-5.2812e-02 -6.6549e-01  5.7876e-01 -1.5196e-01  2.4154e-01 -2.4628e-01
  -9.5270e-01  4.0734e-01  9.9342e-01 -5.3259e-01  8.2920e-01 -5.8404e-01
  -8.4636e-01 -4.1208e-01  4.5492e-01 -1.1421e-01]
 [-6.6988e-01  8.6099e-01  2.5531e-02 -8.6415e-01 -9.6518e-01  5.4037e-02
  -8.7992e-01  8.9667e-01  9.9167e-01 -3.2956e-01  6.0892e-01  5.0721e-01
  -7.2577e-01  1.6901e-01  5.8046e-01 -8.3716e-01]
 [-5.3852e-02 -3.8165e-01 -1.3371e-01 -2.4579e-01 -4.1634e-01 -2.2929e-01
  -2.0886e-01 -2.3746e-01  8.1530e-01  9.9932e-01 -4.7811e-01  2.7172e-01
   3.6535e-01 -7.3275e-01  6.7014e-01 -4.7873e-01]
 [-6.2882e-01  2.2874e-01  3.8913e-01  2.0617e-01 -7.7809e-01  7.2399e-01
   8.7810e-01 -7.7091e-01  8.8338e-01 -1.4126e-01  3.3323e-01 -1.8771e-01
   8.2459e-01 -7.1104e-01  3.7263e-01 -4.0105e-01]
 [ 6.6430e-01  8.5000e-01 -8.7557e-02  6.0126e-01  7.9438e-01  8.7667e-01
   7.6522e-01  1.0448e-01  4.2850e-01 -4.0380e-01 -6.4090e-01  6.6126e-01
  -9.6805e-01  8.5545e-01 -9.5135e-01  7.1509e-01]
 [ 5.0293e-01  5.8795e-01 -7.3593e-01  6.3514e-01  3.8933e-01 -5.2833e-01
   9.3319e-01 -2.0567e-01 -3.9842e-02 -9.6153e-01  3.9029e-01 -4.1498e-01
  -4.0193e-01 -4.5817e-01  7.5903e-01 -7.4106e-01]
 [ 5.0818e-01 -3.2226e-01 -7.4735e-01 -5.8103e-01  1.2606e-01  5.3329e-01
  -1.9057e-01 -2.4426e-01  2.3566e-01 -2.5702e-02  1.1740e-01  4.6207e-01
   9.8187e-01 -2.6772e-01 -9.3676e-01  9.1074e-01]
 [ 8.2814e-01  6.5575e-01 -8.9530e-01 -9.5433e-01 -4.5023e-01 -6.9812e-01
   8.0943e-01  7.4117e-01  3.3736e-01  2.6131e-02  2.5347e-01  2.3855e-01
   2.3363e-01 -3.4098e-01 -2.5569e-01 -1.6200e-01]
 [ 7.2404e-01 -4.5748e-01 -6.2546e-01 -1.1710e-01 -2.8328e-01 -3.4862e-01
   3.5470e-02 -4.1271e-02  9.0428e-01 -9.0391e-01 -6.3834e-01 -3.9402e-01
  -6.3883e-01  4.9895e-01 -5.9070e-01  3.8729e-01]
 [-5.0172e-01  8.5964e-01 -5.7834e-01  8.5036e-01 -6.9704e-01 -5.6360e-01
  -8.0864e-01  4.7428e-02  9.7915e-01 -2.9448e-01  6.1131e-01 -5.1820e-01
  -8.1318e-01 -2.3591e-01  1.4918e-01 -6.5853e-01]
 [ 1.4364e-01  7.8482e-01 -4.4384e-01 -5.1229e-01  7.8425e-01  7.0644e-01
  -5.3828e-02 -8.5301e-01 -4.9862e-01  2.1259e-02  7.1935e-01 -8.6249e-01
   1.0329e-01 -8.1657e-02 -9.5422e-01  9.7488e-01]
 [ 8.4372e-01  6.9741e-01  2.8218e-01  7.5835e-01  3.3735e-01  4.0469e-01
  -5.5577e-01 -9.0722e-01  8.7183e-01 -2.4174e-01 -4.4870e-01  2.3184e-01
  -7.3649e-01  6.7827e-01 -6.0242e-01 -4.2639e-01]
 [ 8.4121e-02  7.2215e-01  2.2122e-01  4.6124e-01  6.1123e-02 -5.5574e-01
  -7.7218e-01 -1.1705e-01  7.7756e-01  3.0154e-01 -1.5320e-01  8.5845e-01
  -3.8300e-01 -3.6604e-01  4.7880e-01  2.3975e-01]
 [-2.7624e-01  1.4499e-01  1.0412e-01 -2.9746e-02 -1.9805e-02  1.4548e-01
   4.5246e-02  5.7531e-01  2.5602e-01 -8.2380e-01 -5.6803e-02  1.6565e-01
  -2.7099e-01 -8.9357e-01  3.8380e-01 -4.7604e-01]
 [ 8.5126e-01 -8.5265e-01 -6.6502e-01 -6.1405e-01 -9.8464e-01  2.0941e-01
   5.7288e-01  1.5497e-01  6.0062e-01  2.7844e-01 -4.9295e-01 -3.7936e-01
  -5.9015e-01  4.3331e-01  3.2575e-01  9.4547e-01]
 [ 3.0101e-01 -7.6253e-01  2.7454e-01  4.2054e-01  6.3237e-01  8.6323e-01
  -8.5350e-01  6.1462e-01 -8.9333e-01 -6.4240e-02 -1.2802e-01 -1.8632e-01
   5.6783e-01  5.7056e-01 -7.0624e-01 -2.6451e-01]
 [-8.1464e-02 -2.9560e-01  1.7504e-02 -5.3970e-01 -5.8108e-01  9.2924e-01
   8.3326e-01  9.6811e-01  4.7547e-01  2.0725e-01  3.4170e-01  7.9883e-01
   5.1027e-01 -4.6634e-01 -1.7872e-01 -3.3257e-01]
 [ 1.8277e-01 -2.2436e-03  2.9680e-01 -6.4876e-01 -2.4719e-01 -6.4815e-01
   6.2525e-01  2.2863e-01 -3.1430e-01  3.1229e-01  8.7095e-01  6.9255e-04
   7.1954e-01 -5.3844e-01 -5.4606e-01  7.5862e-01]
 [ 5.3761e-02  5.5952e-01 -6.5862e-01  1.1111e-01 -8.8907e-01  3.9591e-01
  -7.1060e-01  3.2677e-01 -9.7075e-01 -7.0943e-01  8.5843e-01 -4.4470e-01
   8.9547e-01 -9.5663e-01 -4.2172e-01 -8.5812e-01]
 [-5.1461e-01 -6.4042e-01  7.4373e-01  1.4475e-01  9.4412e-01  8.9517e-01
  -2.5620e-01 -1.0774e-01 -2.5477e-01 -2.6668e-01  8.1030e-01  6.3404e-01
  -6.3365e-01 -3.2119e-02  4.2804e-01  9.8821e-01]
 [-4.9496e-02 -7.5569e-01 -5.7734e-01  8.8708e-01 -2.8956e-01  2.6784e-02
   2.7542e-01  7.9305e-02  6.3576e-01  2.1402e-02 -3.2210e-01 -2.5894e-02
   5.2235e-01  8.2094e-02  9.7624e-01  2.5235e-01]
 [-2.2823e-01  9.3681e-01  3.7890e-01  9.6588e-01  7.4674e-01  3.8614e-01
  -1.7813e-01 -5.7805e-01  1.7610e-01 -3.6034e-01  1.8815e-01 -4.6141e-01
  -1.3920e-01  3.8635e-02 -8.7806e-01 -5.8139e-01]
 [-2.7476e-01 -2.1041e-01  3.3309e-01  7.1852e-01  5.6997e-01  5.9080e-01
   6.4474e-01  1.6342e-01 -2.0673e-01  2.2489e-02 -2.3420e-01  9.7852e-02
   4.4329e-01  8.2503e-01 -3.7632e-01 -9.9994e-01]
 [ 7.5064e-02 -4.6198e-02 -1.1108e-03 -6.9369e-03 -3.2840e-01  4.7424e-01
   6.6094e-01  2.9225e-01  1.5952e-01 -6.9476e-02 -4.6745e-01 -5.7628e-01
   9.2436e-01 -7.2273e-01 -4.9278e-01 -1.8025e-01]
 [ 2.9942e-01 -7.1731e-01 -1.5105e-01  5.7254e-01 -2.7268e-01 -4.7500e-01
   9.2092e-01 -2.4980e-01 -8.1446e-01  1.1286e-01  8.7234e-01  8.5151e-01
  -1.2563e-01  3.8107e-01 -7.3268e-02  1.2566e-01]
 [ 9.7725e-01 -3.0861e-01 -2.0120e-01 -2.7962e-01  6.2844e-01  4.6099e-01
  -9.8762e-01  6.7341e-01 -6.5216e-01 -3.3298e-01  1.7146e-01 -4.9407e-01
  -9.7260e-01  3.8575e-01  4.9039e-01  6.4038e-01]
 [-6.7709e-02 -5.8657e-01 -5.4178e-01  2.8621e-01  1.3092e-01 -2.7112e-01
  -7.4230e-03  7.8547e-01 -8.0349e-01 -2.6067e-01 -1.8422e-01  6.8874e-01
  -4.4323e-02 -1.8155e-01 -5.8715e-01 -3.5536e-01]
 [ 2.4286e-01 -3.0387e-01 -1.1146e-01 -3.2541e-01  6.8786e-01  8.3071e-01
   7.3896e-01  2.7496e-01 -6.2962e-02  3.0477e-01 -6.3439e-01 -5.1484e-01
   4.1058e-01 -8.8080e-01 -9.4354e-02  1.9243e-01]
 [ 2.5155e-02 -1.7338e-01 -7.6005e-01  1.9825e-01 -9.9375e-01  5.4199e-01
   4.0795e-01  6.2954e-02  4.0550e-01  8.3434e-02  6.7356e-01 -1.0010e-01
   8.7579e-02  9.2646e-01  5.5820e-01 -1.1483e-01]
 [-7.6297e-01  6.5905e-01 -6.0672e-01 -4.4088e-01 -2.0120e-01 -6.4521e-01
  -5.9579e-01 -8.5736e-01 -4.2013e-01  8.0192e-01  8.0172e-01 -9.7102e-02
  -5.5020e-01  1.7532e-01 -8.0461e-02  5.7029e-01]
 [-9.2862e-01 -6.5043e-01  1.4084e-01  8.5847e-01 -8.8081e-01 -8.1893e-01
   4.3474e-01 -3.8482e-01  7.6642e-01 -8.6254e-01 -4.8594e-01  6.3853e-01
  -7.9097e-01 -8.4768e-01 -9.0100e-01  1.3079e-02]
 [ 4.1672e-01  9.2447e-02  6.4298e-01  7.9191e-01 -7.4764e-01  4.4602e-01
   2.2862e-01 -2.7230e-01  8.8767e-01  4.5588e-02 -5.6711e-01 -7.8007e-01
   9.7966e-02 -8.1726e-01  6.0578e-01  5.8693e-01]
 [-7.2581e-01 -4.7716e-01 -7.3212e-01  5.9630e-01  1.4238e-01  2.2973e-01
  -5.4454e-01  1.8738e-01  5.3994e-01 -8.4866e-01 -8.9570e-01 -4.2606e-01
  -7.8586e-01  3.7014e-01  1.6352e-01  8.4543e-01]
 [ 9.2330e-01  1.9345e-01 -3.4740e-01 -4.9805e-01  2.6066e-01  3.9012e-01
  -9.5935e-02 -8.4910e-01 -3.3719e-01 -3.1577e-01 -2.0176e-01  8.9029e-01
  -8.0477e-01  4.1559e-02  8.6979e-01  7.4420e-01]
 [ 2.3454e-01 -9.8277e-01 -9.8931e-01  2.1173e-01  1.9837e-01 -4.6903e-01
  -4.6416e-01  3.7824e-01 -4.6276e-01 -2.0096e-01  5.8463e-01  8.0065e-01
  -9.5446e-01  5.3130e-01  8.7723e-01 -9.8764e-01]
 [ 6.5572e-01 -3.3563e-01  6.3332e-01  3.6527e-01 -3.0964e-02 -9.7344e-01
  -7.0980e-01 -9.8219e-01 -8.3200e-01  8.0169e-01 -2.9671e-01  4.0332e-01
   6.3482e-01  5.2718e-01 -5.8935e-01  8.1158e-01]
 [-5.1296e-01 -6.8314e-01 -3.9844e-01 -6.6584e-02  4.2247e-01 -6.9125e-01
   7.6498e-01 -6.2054e-02  8.2256e-01  6.6446e-01 -1.7739e-01 -6.6700e-01
   1.7784e-01  4.2086e-01 -2.8307e-01  2.7162e-01]
 [ 5.8331e-01  2.7268e-02  7.8425e-01 -9.1416e-01 -3.2058e-01  6.2574e-01
   8.2987e-02  5.7847e-01 -1.7449e-01  7.0285e-01  7.1118e-01 -1.0108e-01
   1.8493e-01 -5.8509e-02  7.5697e-01  9.6427e-01]
 [ 4.6192e-01 -4.1550e-01 -4.6688e-02 -2.5495e-01 -7.6811e-01  3.3510e-01
  -9.3341e-01  3.4810e-02 -2.5453e-01  9.4325e-03 -7.4310e-01 -1.8252e-01
   8.6254e-01  9.4436e-01 -1.2237e-01 -5.3090e-01]
 [-4.9455e-01 -1.8762e-01  8.6283e-01  8.2034e-01  8.8516e-01 -8.8269e-01
   6.4554e-01 -4.6591e-01  7.5678e-01 -5.8012e-01 -4.2267e-01  6.5130e-02
  -2.6726e-01  9.3886e-01 -8.8466e-01  2.7048e-02]
 [-7.3358e-01  6.2876e-01  2.8305e-01 -3.7654e-02 -9.6704e-01 -8.7221e-01
   8.5429e-01 -3.1477e-01  4.0278e-01 -5.1841e-01 -8.8110e-01 -2.4594e-01
  -3.0149e-01  2.9907e-01 -7.3362e-01 -2.2886e-01]
 [ 5.2582e-01 -7.5983e-01  9.8882e-01 -4.8591e-01  4.6258e-01 -6.2575e-01
   3.2768e-02  9.5484e-01  8.4227e-01  4.0989e-01 -5.8025e-01 -2.1298e-01
   1.4144e-01  4.6507e-01  3.9734e-01 -6.6795e-01]
 [ 3.7238e-01 -7.0830e-01 -1.5097e-01  8.8451e-01 -3.1804e-01 -3.1612e-01
   4.9323e-01  8.0333e-01  6.0595e-01  5.9765e-01 -2.1688e-01 -9.3800e-01
  -2.8400e-01  1.7464e-01 -6.3348e-01 -2.3402e-01]
 [ 9.7792e-01  8.1960e-02 -1.6036e-01  3.1796e-01 -4.8795e-01 -2.5402e-01
   1.8250e-01  6.3096e-01 -7.3601e-01  1.3298e-01  3.2636e-01 -6.2404e-01
   9.9263e-01  4.1283e-02  6.3175e-01 -6.2923e-01]
 [-5.5548e-01 -9.1687e-02  1.7011e-01  6.2678e-01  4.7874e-01  4.4306e-01
  -3.1464e-01  8.7517e-01 -2.8272e-01  6.9640e-01 -2.0565e-02  3.0404e-01
  -3.9752e-01 -2.7229e-01  3.0740e-02  9.6007e-01]
 [ 1.7417e-01  6.1387e-01  1.2583e-02 -8.0580e-01  7.0193e-01 -3.5757e-01
  -3.8248e-01  3.6571e-01 -5.0314e-01 -6.4717e-01 -4.0238e-01  8.1920e-02
  -1.7957e-01  2.8980e-01  6.5966e-02  3.1802e-01]
 [-7.7519e-01 -8.1929e-01 -4.7085e-01 -8.8795e-01 -6.6152e-02 -1.7261e-01
  -1.0877e-01  7.6626e-01  9.8936e-01 -8.3726e-01 -3.0760e-01  2.5100e-01
  -3.1828e-01 -8.7126e-01 -6.8781e-01 -9.1790e-01]
 [ 5.4886e-01 -7.3304e-01  6.3816e-01  2.4029e-01  5.8777e-01  6.1809e-01
   6.6807e-01  3.7821e-01  2.8969e-01  5.9787e-01 -7.2492e-01  2.3437e-01
   1.6411e-01  5.3047e-01  7.6095e-01  4.7971e-01]
 [-7.5050e-01  9.8330e-01 -6.7103e-01 -6.5797e-01  3.8796e-01  2.6199e-01
   2.2775e-01 -5.2397e-01  8.4986e-02  5.7163e-03  9.6743e-01 -6.9195e-01
   7.0282e-01  8.6114e-01 -4.2001e-02  7.4969e-01]
 [ 8.0890e-01  3.9364e-01  9.3083e-01  8.7229e-01  9.6853e-01  4.0030e-01
  -7.2663e-01  1.2111e-01 -9.2919e-01  5.2727e-01  8.0925e-01  8.1913e-01
   4.9221e-01 -8.6601e-01 -5.4951e-01  7.7616e-02]
 [ 3.4788e-01 -4.3775e-01 -7.5881e-01 -6.0823e-01 -6.0876e-01  6.9153e-01
  -1.5706e-01 -3.7382e-01 -5.3182e-01 -9.8456e-01 -6.4929e-01 -8.5620e-01
   5.3866e-01 -5.0568e-01 -1.9659e-02 -8.0014e-01]
 [ 4.6443e-01  3.8232e-01  7.7613e-01  1.3969e-02 -3.5757e-01 -3.0577e-01
   9.3367e-01  8.9198e-01  5.5478e-02 -3.2179e-01 -2.2541e-01 -7.9358e-01
  -2.3369e-01 -8.7428e-01 -3.8738e-01 -6.4429e-01]
 [-8.4936e-01 -5.8690e-01  2.6506e-01 -6.1133e-01  7.1891e-01  1.2306e-01
   9.5522e-01 -3.5999e-01 -9.5639e-01 -6.4423e-01 -4.1412e-01  3.8836e-01
  -5.3829e-01 -1.9364e-01  9.6384e-01  3.5120e-01]
 [-6.4510e-01 -3.7736e-03 -9.0969e-02 -1.6635e-02  2.5687e-02 -5.2397e-01
   2.8035e-01  8.7556e-01 -3.3551e-01  8.0843e-01  8.1328e-01 -5.1628e-01
  -2.1012e-01 -8.0554e-01  2.1796e-01  8.0837e-01]
 [ 6.0647e-01 -1.6553e-01  6.4030e-01 -7.2022e-01  2.8505e-01  8.5863e-01
   6.5097e-02 -5.5772e-01  8.9165e-01  2.2744e-01 -4.0557e-01  9.5899e-01
   7.5934e-01 -9.2433e-01  2.0162e-01  4.7745e-01]
 [-3.7980e-01  8.1098e-01 -8.7245e-01  8.3438e-01 -8.3600e-01  7.2111e-01
  -5.8272e-02  1.5445e-01 -9.3998e-01  9.5650e-01 -8.7340e-01  2.4497e-01
   7.0274e-01  4.4014e-01  9.4801e-01 -3.3117e-02]
 [-2.3426e-01  4.9196e-01 -1.5201e-01  1.3596e-01 -3.1511e-01 -1.8222e-01
   2.5474e-01  6.4088e-01 -8.4601e-01  4.8433e-01 -7.4209e-01 -7.9172e-01
   5.1518e-01  3.9227e-01  4.8304e-01  8.3171e-01]
 [-4.8778e-01  5.2733e-01 -2.6851e-01 -4.1974e-01  1.5747e-01  3.5651e-01
   4.0147e-01 -5.0862e-01  4.0260e-01 -3.3536e-01  8.3479e-01  1.5366e-01
  -9.9901e-01 -5.0248e-01 -6.0943e-01 -8.8534e-01]
 [ 2.6306e-01 -6.2630e-01 -3.1681e-01  5.6824e-01  3.5288e-01 -6.4686e-01
  -5.7030e-01  7.9367e-01 -5.1941e-01 -5.5460e-01 -1.3875e-01 -1.9430e-01
   8.9122e-01  1.8026e-01  9.1171e-01 -6.2887e-01]
 [ 2.4676e-01 -9.2854e-01 -8.8446e-01 -4.1721e-01  6.6922e-01 -8.3596e-01
  -4.4487e-01  2.6259e-01  7.1985e-01  4.7365e-01 -4.7945e-01 -1.4978e-01
  -7.9058e-01  3.1547e-01 -1.5290e-02 -3.9840e-01]
 [-4.6238e-01  4.2858e-01 -6.1423e-01 -1.5069e-01 -9.5596e-01  4.1428e-01
  -7.1863e-01  5.1205e-01  7.4222e-01 -3.5496e-01  9.7408e-01 -3.9678e-01
   6.2979e-01 -7.5443e-01 -8.1760e-01  7.2556e-01]
 [-1.9022e-01  6.1605e-01 -8.0718e-01  3.6639e-01  9.6297e-01  7.7909e-01
   1.2280e-01  5.4441e-01  4.5857e-01  5.8779e-02  4.3844e-01  3.2200e-01
  -3.6536e-01  2.8601e-01  8.1088e-01  1.1267e-01]
 [ 1.5852e-01 -3.8201e-01  6.8659e-01  4.8921e-01 -8.9243e-01  1.8012e-01
   1.2829e-01 -3.2479e-01 -2.2482e-01 -7.7919e-02 -8.8907e-01  8.6329e-01
  -5.8832e-01  7.1859e-01 -3.0130e-01  3.5800e-01]
 [-6.4331e-01  3.8927e-01 -3.9114e-01  6.9382e-01  5.9188e-01 -4.9544e-01
  -8.3072e-01 -9.9005e-01  6.3751e-01  6.1339e-01 -6.1213e-01 -8.9698e-01
  -2.6134e-01  4.9149e-01  5.1469e-01 -6.0312e-01]
 [ 7.2963e-02 -8.0804e-01 -7.1337e-01 -8.1956e-01  5.1459e-01  5.9657e-01
  -9.8358e-02 -7.6208e-01 -4.5155e-01  1.8478e-01  9.5834e-01  8.9634e-01
  -9.8642e-01  1.8093e-02  3.2593e-01 -5.8269e-01]
 [ 4.6903e-01 -3.7210e-02  2.8098e-01 -7.2525e-01  1.7692e-01 -5.8589e-01
   8.5594e-01 -2.1406e-01  6.0819e-01  3.9485e-01 -6.1003e-01 -5.5710e-01
  -1.2249e-01 -4.4778e-02 -6.5962e-01  5.9991e-01]
 [-7.4066e-01  4.0505e-01 -9.5262e-01  7.6390e-01 -6.8329e-01 -7.0850e-01
  -6.9502e-01 -2.9034e-01 -9.0259e-01 -9.1146e-01  6.3642e-03 -1.3407e-01
  -5.4863e-01  5.6430e-01 -6.0170e-02 -3.0278e-01]
 [ 3.9911e-01 -7.7650e-01  5.1307e-01 -7.1905e-01 -1.6153e-01  1.8812e-01
  -5.8777e-01 -7.4619e-01  3.2753e-01 -5.0026e-01  9.3896e-01  5.7946e-01
   9.6569e-01 -3.4191e-01 -2.5295e-01 -2.2294e-01]
 [ 6.0301e-01  1.1255e-01  6.5041e-01 -3.2703e-01 -7.4009e-01  6.2233e-01
  -6.8658e-01 -1.5286e-01  7.1084e-01  6.6124e-01  3.4628e-01  5.8992e-01
   6.0540e-01  7.5503e-01  9.3638e-01  7.2830e-01]
 [-5.5957e-01  8.6096e-01 -2.5180e-01  2.0927e-01  5.5972e-01  1.3264e-01
   3.7374e-01 -4.6443e-01 -3.5427e-02  9.8599e-01  4.8954e-02  6.7651e-01
  -1.1832e-01  5.4286e-01 -9.8911e-01 -7.3030e-01]
 [ 6.2954e-02 -5.6946e-01  4.7352e-01  6.5283e-01 -1.6666e-02 -9.2400e-01
  -1.1609e-01 -8.6147e-02 -4.4370e-01 -6.7946e-01  4.1795e-01  4.4179e-01
   9.8252e-01 -6.7975e-01  2.6113e-01  9.0029e-01]
 [-7.0594e-01  1.1536e-01 -7.6917e-01 -6.4635e-01 -7.3871e-02  1.9774e-01
   3.4875e-01  8.9049e-01 -8.1821e-03  1.0582e-01  3.9949e-01  2.4695e-01
  -1.2832e-01 -6.3694e-01 -7.8563e-01  4.3073e-01]
 [ 5.2840e-01  5.4228e-02  5.3859e-01  4.7455e-01 -8.7254e-01 -6.4083e-01
   2.2484e-01  6.4244e-01  2.5109e-01  8.0980e-01 -9.5709e-01  1.7052e-01
  -1.3645e-01 -8.5967e-01 -3.8693e-01 -9.3360e-01]
 [-9.2389e-01 -4.4114e-01 -5.3086e-02 -6.7574e-02  4.2536e-01 -9.1363e-01
   2.8134e-01 -1.5810e-01 -1.4289e-01 -6.3049e-02  2.9714e-01 -6.9779e-01
  -8.2439e-01 -5.8828e-01 -4.2809e-01  9.4894e-02]
 [ 9.1528e-01 -1.3878e-01  2.2846e-01 -6.6584e-01 -5.0183e-01  6.4874e-01
  -4.2720e-01  9.9262e-01 -4.9813e-01 -9.8959e-01 -1.5330e-01 -8.1183e-01
   1.6530e-01  2.7972e-02 -5.0605e-01  6.4628e-02]
 [ 6.9655e-01 -1.6649e-01 -2.1305e-01 -4.3154e-01 -9.3310e-01 -6.0935e-01
  -8.7690e-01 -5.4933e-01  8.7519e-01  4.1396e-01  6.0717e-02 -7.2423e-01
   1.7021e-01  5.2424e-01  9.7200e-01 -7.7451e-01]
 [-2.7506e-01 -2.5898e-02 -4.1256e-01 -2.9658e-01 -1.1355e-02  4.0633e-01
   9.1498e-01 -5.4994e-01 -8.0193e-01  9.9577e-01  1.7056e-01 -6.1560e-01
  -4.5284e-01  5.8105e-01  9.1689e-01 -1.8624e-01]
 [-3.2256e-01 -4.3375e-01 -8.1129e-01 -5.6484e-01  9.6285e-01 -6.6330e-01
   6.7783e-02  5.1273e-01 -7.9494e-01  2.8523e-01 -4.5352e-01 -3.6798e-01
  -7.1921e-01  4.6980e-01  8.4860e-02  6.5390e-01]
 [ 7.0868e-02  9.9239e-01  6.0083e-01 -2.1146e-01  8.3327e-01 -3.7364e-01
   4.2536e-01  8.4562e-01  2.5744e-01  3.6726e-01  9.6752e-01 -1.4245e-01
  -7.2466e-01 -2.1960e-01 -9.8641e-01 -9.9786e-01]
 [-7.5768e-01 -6.5991e-01  8.0154e-01  5.4472e-01 -7.6999e-01 -3.5825e-01
   2.8628e-01 -7.0450e-01 -1.8969e-01 -1.0013e-01 -6.3101e-01 -7.2308e-01
  -3.0700e-01  5.0633e-02  7.1328e-01 -5.6415e-01]
 [-2.2762e-01 -9.3652e-01  9.4863e-01  9.8067e-01  8.4749e-01  2.5029e-01
  -1.3468e-01  2.6925e-01  1.0961e-01 -2.8034e-01 -3.5603e-01 -3.3735e-01
  -7.7824e-01  7.6722e-02 -9.4037e-01 -2.1583e-01]
 [ 6.5206e-01  6.6057e-02  1.9721e-01 -6.4579e-01 -5.2486e-01 -7.7345e-01
  -8.3279e-01  3.8003e-01 -5.0619e-01 -1.6816e-01  9.8139e-01 -3.7169e-02
   6.8057e-01  1.3526e-01  1.8650e-01 -5.8152e-01]
 [-4.4305e-01  5.3107e-01  8.2690e-01 -1.5629e-01  5.8928e-01 -6.9330e-01
   6.8908e-01 -3.7803e-01  8.1231e-01 -7.8299e-01  4.0736e-01 -3.4105e-01
   7.0282e-01 -3.9313e-01  4.0752e-01 -4.8776e-01]
 [-3.9050e-01  2.0737e-01 -5.5745e-01 -3.9036e-01 -7.9834e-01  5.8354e-01
   7.0758e-01  9.4332e-01 -2.2549e-01  5.3022e-01  5.1802e-01 -6.9491e-03
   8.4925e-01 -6.1249e-01 -7.0864e-02 -2.9618e-01]
 [ 6.5548e-01 -2.9530e-01  5.5209e-01  4.9109e-01 -9.8960e-01  3.7206e-01
   1.3058e-01  4.1322e-01 -8.3053e-01 -2.6050e-01  7.4596e-01 -7.4010e-01
   6.6585e-01  8.2757e-01  2.2427e-02 -6.1810e-01]
 [-6.4848e-01 -2.1852e-01 -4.6858e-02 -6.1580e-01 -3.8890e-02 -4.2135e-01
  -7.4269e-02 -6.9292e-01  5.6509e-01 -6.2019e-01 -4.8223e-01 -3.4189e-01
  -5.8319e-01 -3.5153e-01  1.1022e-01 -6.1557e-01]
 [-5.7568e-02 -6.4950e-01  1.7610e-01 -6.1370e-01 -2.6046e-01  2.3928e-01
  -6.5879e-01  3.7160e-01 -2.9853e-01  7.4992e-02  5.1988e-01  4.1429e-01
  -8.6768e-01 -3.1909e-01  9.2782e-01 -2.0948e-01]
 [ 1.1887e-01 -5.4247e-01 -2.2261e-02 -3.5471e-01  6.2670e-01 -9.8540e-01
   3.6460e-01 -8.7840e-01 -5.7757e-01 -5.8852e-01 -9.0182e-01  4.5661e-01
   2.7931e-01 -2.3763e-01  1.2413e-01 -4.4027e-01]
 [-1.8343e-01 -7.3295e-01  8.9768e-01  6.4347e-01 -5.1861e-01 -2.9947e-01
  -3.5985e-01 -4.7966e-01 -9.3261e-01 -7.4550e-01 -9.5782e-02 -8.3885e-01
  -6.0557e-01  2.3169e-01 -1.7251e-01  6.6998e-01]
 [-9.1750e-01 -2.4354e-01 -1.7000e-01  3.4176e-01 -3.5896e-01  6.7871e-01
  -2.5951e-02  2.6722e-01  9.1333e-01  1.6577e-01 -6.6439e-01  8.9204e-01
  -2.3103e-01 -6.1715e-01 -2.1552e-01 -3.5990e-01]
 [ 4.6537e-01 -4.3101e-01  4.4690e-02  3.1000e-01  4.6728e-01 -3.4475e-01
  -1.5097e-01 -6.3232e-01  4.0339e-01 -3.1656e-01  3.1822e-01  2.0886e-01
  -9.9759e-01  7.1477e-01 -2.5214e-01 -8.3099e-01]
 [ 2.3044e-01 -6.0687e-01 -5.6827e-01  9.6243e-01 -1.7164e-01  4.7203e-01
   2.1494e-01 -1.8356e-01  3.9137e-02 -4.4070e-01  7.7199e-01 -6.9736e-01
  -3.4795e-01  9.4388e-01 -7.4294e-01  6.1911e-01]
 [ 8.2232e-01 -2.2293e-01  9.7617e-01 -8.7717e-01 -1.6655e-01  1.3829e-01
   7.1181e-01 -4.7792e-01 -3.5550e-01  8.7766e-01 -6.6154e-01  1.9603e-01
   5.8075e-01  7.7749e-02 -8.9314e-01 -7.7729e-01]
 [-3.9623e-01  4.0088e-01  8.1135e-01 -8.4134e-01  4.2090e-01  6.8740e-01
   9.5834e-01 -9.7842e-01  7.2445e-01  3.9225e-02  1.7584e-01  3.3367e-01
   1.6030e-01 -3.4565e-01 -6.4925e-01  4.7013e-01]
 [ 7.9737e-01  2.6475e-01  1.6714e-01 -4.6287e-01  8.4505e-01  7.2127e-01
   2.6974e-01  8.1268e-01 -9.8144e-01  5.0679e-01  4.4435e-01  8.6730e-01
   6.6580e-01  8.8547e-02 -5.2335e-01  6.4973e-01]
 [ 1.4999e-01  6.0542e-01 -7.7004e-02 -9.9702e-01  3.7644e-01 -8.1147e-01
   6.2214e-01  2.4190e-01  5.0297e-01  2.4660e-01  9.3819e-01  8.4638e-01
  -4.8847e-01 -9.7132e-01  6.6372e-01  6.9637e-01]
 [ 2.8783e-01 -3.7856e-01 -4.3503e-01  1.8502e-01 -5.5138e-01  7.5630e-01
   8.2786e-01  9.0453e-01  7.4053e-01  1.1918e-02  2.3665e-01  8.9527e-01
   1.9934e-01  3.6836e-02 -9.1236e-01 -5.5126e-01]
 [ 8.2689e-01  6.3528e-01 -2.0267e-01  6.3218e-01  7.5735e-01 -7.3735e-01
  -5.0026e-01  2.7498e-01 -5.3926e-01 -2.1413e-01  2.3216e-01  7.8879e-01
  -8.6174e-01 -4.1612e-01  6.8814e-02  9.3427e-01]
 [ 2.3754e-01 -5.3881e-01  4.2512e-01 -2.5228e-01  2.0017e-01 -5.6862e-01
  -3.2630e-01 -3.9273e-01 -9.9844e-01 -4.0269e-01 -2.8756e-02 -2.7684e-01
  -8.2037e-01 -2.6213e-01 -9.3176e-01 -4.1014e-02]
 [-1.8630e-01 -3.2194e-01 -7.9563e-01 -4.6082e-01 -8.5961e-01 -5.3187e-01
   5.8103e-01  2.0296e-01 -7.7411e-01  6.5079e-01  9.6308e-01 -9.9762e-01
   2.3697e-02 -7.4116e-01  5.3167e-01 -4.9147e-01]
 [ 9.9868e-01 -2.7228e-03 -8.8391e-01  1.7366e-01  7.3998e-01 -6.4010e-01
   6.8013e-01  8.9916e-01 -6.5148e-01  2.9969e-01 -3.7313e-01 -5.3615e-01
   2.2624e-02  3.2924e-01  9.9954e-01 -6.5976e-01]
 [-5.0953e-01 -5.4533e-01 -2.7519e-01  3.9392e-01  8.6687e-01 -1.0690e-02
  -1.0004e+00  1.9544e-01  5.5087e-01 -2.5439e-02 -8.2610e-01  1.9042e-01
  -3.9794e-01  3.2876e-01 -8.2832e-01  7.3942e-01]
 [-8.0070e-01 -3.9719e-01  8.7616e-01 -8.7365e-01  9.0606e-01  6.2489e-01
  -2.8404e-01  2.4051e-02  6.3747e-01  6.6622e-02  3.1421e-01 -5.9016e-01
   5.6044e-03 -5.7106e-01 -9.4010e-02  6.3328e-01]
 [ 3.8207e-01  6.3200e-01  8.3930e-01 -2.1063e-01  3.6158e-01  6.7399e-01
  -1.2150e-01 -2.9206e-01 -2.4884e-01  1.6929e-01  7.9851e-01  9.9058e-01
  -9.1146e-01 -6.0747e-03  6.4210e-01  4.0802e-01]
 [ 2.5654e-02 -4.8309e-02 -9.4508e-01  7.6584e-01 -6.2553e-01 -4.1367e-01
   8.6272e-01  7.8047e-02  9.2479e-02 -5.3871e-01 -8.7627e-01  2.2404e-01
   4.2236e-01 -7.8973e-01  6.8132e-01  3.7759e-01]
 [-7.7842e-01  5.8073e-01 -9.3012e-01 -4.8916e-01  6.9974e-01 -5.4769e-01
  -3.4453e-01 -8.9317e-01 -4.1837e-03 -9.0690e-01 -6.0275e-01 -5.2240e-01
  -1.4602e-01 -2.1259e-01 -4.1192e-01 -7.3239e-01]
 [ 6.0439e-01  5.7631e-01 -7.4328e-03 -9.0553e-01  6.1685e-01  6.1507e-01
   3.2280e-01  7.2469e-01  7.2783e-01  4.3276e-01  6.3099e-01  8.2292e-02
   2.7947e-01  8.0793e-01 -2.3796e-01 -5.3165e-01]
 [-7.2483e-01 -1.6627e-01 -6.3675e-01 -8.1527e-01  4.2791e-01  8.0337e-01
  -7.7779e-01 -8.9792e-01  3.0814e-01 -5.5140e-01  6.2744e-01 -5.8349e-01
  -2.5346e-02 -4.2201e-01  5.0736e-01  8.2066e-01]
 [-8.4171e-01 -2.5064e-01 -9.5270e-01 -6.6773e-01 -7.3789e-02 -5.6622e-01
   9.3517e-01  5.6287e-02 -6.2309e-01  3.3863e-01 -7.6248e-01 -6.8523e-01
   6.4236e-01 -9.0043e-01 -2.5527e-01  9.3594e-01]
 [-4.7156e-02  2.1125e-01 -5.4879e-02  5.6373e-01  6.8776e-01  5.2750e-01
  -6.7979e-01 -1.0753e-01 -1.8669e-01 -1.3702e-01 -4.2329e-01 -5.6932e-01
  -8.8049e-01  1.1864e-01  8.1729e-01 -2.8405e-01]
 [-3.7162e-01 -2.9290e-01 -5.8326e-01  8.7155e-01 -6.7206e-01  2.3094e-02
   6.1360e-01  8.2587e-01 -6.3224e-01  7.5333e-01 -3.5132e-02 -9.0215e-01
   8.2604e-01 -6.2640e-01 -2.4498e-01  7.5081e-01]
 [-5.5578e-01  9.5492e-02  9.0315e-02  9.8421e-01  1.6788e-01  8.6655e-01
  -6.3275e-01  1.8799e-01 -2.6265e-01  6.2741e-01 -5.6889e-01 -5.4491e-01
  -6.5938e-04  4.9571e-01  8.6748e-01 -3.4258e-01]
 [ 6.1778e-01 -5.5366e-01 -3.4964e-01  9.1360e-01 -7.0576e-01  5.2265e-01
  -3.9926e-02 -2.2615e-01 -6.6438e-02  4.4051e-01 -7.1450e-01  3.5316e-01
   4.0889e-01 -5.1721e-01  5.7126e-01 -1.8861e-01]
 [-9.8259e-01  5.3801e-01  4.9047e-01 -1.9751e-02  9.4300e-01 -4.1184e-01
   9.5090e-01  3.2577e-01  4.6285e-01 -3.2795e-01 -5.9445e-01  5.4823e-04
  -6.8346e-01  6.4922e-01  1.3927e-01  5.3611e-01]
 [ 4.0776e-01  9.9864e-01 -9.6278e-01  9.2547e-01  8.7281e-02  4.7614e-02
  -7.4692e-01  1.4745e-01  3.5696e-01  3.9489e-01  8.5218e-01  6.0612e-02
   5.1137e-01 -6.0862e-01 -6.4824e-01  5.5894e-01]
 [ 5.1015e-01 -1.3939e-01  2.6901e-01 -3.3894e-01  7.0209e-01 -3.5565e-01
   4.7075e-03 -9.3509e-02 -8.0794e-01 -7.9184e-01  8.9438e-01 -7.1845e-01
   3.8826e-01  5.9882e-01  4.5714e-01  7.9045e-01]
 [-8.3656e-02  4.3084e-01  1.5567e-01  8.8651e-01 -1.2544e-03  5.7481e-02
  -5.2367e-01 -2.7778e-01  9.6533e-02  4.3435e-01 -6.6226e-02 -5.7498e-01
   5.1469e-01 -5.6901e-02  9.8539e-01  2.7099e-01]
 [ 6.3415e-01 -6.6307e-01 -1.3078e-01 -8.9997e-01 -2.6880e-01 -5.2112e-01
   3.9267e-01  8.6931e-01  9.1637e-01 -1.2322e-01  1.1112e-01 -7.7199e-01
   1.9914e-01 -6.5142e-01 -2.7880e-02 -4.6686e-01]
 [-6.6470e-01 -8.9627e-01  6.1127e-02 -3.4990e-01 -4.1162e-01 -7.8528e-01
  -3.0089e-01 -9.8536e-01 -9.0212e-01 -2.1940e-01  5.8660e-01  5.6084e-01
   1.3124e-01  4.8863e-01  4.9733e-01  5.7490e-02]
 [-2.9182e-01  7.8718e-01  5.9123e-01 -2.1654e-01 -4.0019e-01  8.2640e-01
  -2.2569e-01 -4.8664e-01 -1.8202e-01  8.5094e-01  8.8231e-01  8.9896e-01
   9.5346e-01 -5.0665e-01  3.3506e-01 -6.1944e-01]
 [ 7.7454e-01  4.0192e-02  5.2842e-01  8.7212e-01 -1.9414e-01 -4.5338e-01
   6.9843e-01  1.3689e-01 -1.2937e-01 -8.1529e-01 -6.7820e-01  9.1013e-01
  -3.7886e-01  9.4704e-01  8.9241e-02 -5.1029e-02]
 [ 3.3816e-01  8.3305e-01 -2.2017e-01 -6.4568e-01 -6.8756e-01  7.8922e-01
  -8.8214e-01  8.0196e-01  2.8825e-01 -4.4140e-01  6.5803e-01 -7.6420e-01
   5.7454e-03 -1.3618e-01  5.3958e-01 -1.9825e-01]
 [-6.2291e-01  9.9745e-01  3.0540e-01  6.2279e-01  9.6754e-01 -9.0673e-01
   3.6744e-01  5.7846e-01  4.5987e-01 -5.5925e-02 -3.7698e-01  5.5501e-01
   1.8092e-01 -2.1167e-01  2.8614e-01 -1.1714e-01]
 [-4.1421e-01  5.2344e-01  4.0266e-01  5.7173e-01 -5.0429e-01 -2.0502e-01
   1.5882e-01 -1.4373e-01  5.0954e-01 -7.1292e-01  8.6614e-01 -5.2367e-01
  -5.2949e-01  8.8516e-02  4.1295e-01  3.3556e-01]
 [ 1.3577e-01 -9.9689e-01 -1.7120e-01  3.0475e-01  2.4306e-01  4.7175e-01
   8.5487e-01  8.2134e-01 -4.5449e-04  3.9319e-01  9.1187e-01  8.3078e-01
  -7.4026e-01 -5.3123e-01  9.2569e-02 -1.8143e-01]
 [ 6.5463e-01  7.9734e-01  5.4729e-01  6.6437e-01 -2.1868e-01 -7.1577e-01
   8.3385e-01  1.2763e-02 -4.4975e-01  3.9495e-01 -6.2218e-01  8.3092e-01
  -2.5558e-01 -4.0334e-01 -5.7784e-02 -4.7611e-01]
 [ 4.4026e-01 -3.2638e-01  9.6778e-01 -1.4166e-01  7.5964e-02  1.6899e-01
   8.2707e-01 -6.4541e-01 -9.9285e-01  8.2423e-03  6.7401e-01 -8.8701e-01
   1.9269e-01 -3.4329e-01  5.7226e-01 -5.8301e-01]
 [ 5.2344e-01 -4.0976e-01 -3.0365e-01 -9.1030e-02  3.4539e-01  9.4707e-01
   3.1412e-01  1.1812e-02  1.1413e-01 -8.2282e-01 -8.1352e-01 -4.2063e-01
   9.7818e-01 -2.1086e-01 -7.7022e-01  4.1538e-01]
 [ 5.0573e-01  3.7752e-01  9.5374e-01 -4.5299e-01  7.5659e-02  4.4084e-01
  -6.4734e-01  6.7039e-02  4.9917e-01 -7.9095e-01 -4.7748e-01 -9.8155e-01
  -3.4116e-01 -1.4553e-01 -6.9653e-01 -7.3692e-01]
 [ 7.4602e-01  3.5889e-01 -5.4116e-01  1.6540e-01  3.2978e-01 -7.6863e-01
   9.3966e-01 -9.1361e-01 -7.0175e-01  1.8933e-02  5.0646e-01 -8.4184e-02
  -8.5846e-01  7.6968e-01 -9.7529e-01  9.3016e-01]
 [-8.0482e-03  4.7672e-01 -5.8667e-01 -5.4625e-01 -6.6690e-01 -5.9133e-01
   2.1258e-01 -5.8604e-01  9.3564e-01  1.1314e-01  8.5332e-01  9.5569e-01
   4.8761e-01 -1.6133e-01  6.7195e-01  4.7325e-01]
 [-8.2281e-01  9.8955e-01 -8.7170e-01  7.2022e-01 -5.6719e-01  8.6908e-01
   3.9841e-01 -2.6828e-01  7.1596e-01 -2.8665e-01 -6.9104e-01 -2.2040e-01
  -8.6813e-02  7.0085e-01  5.9797e-01 -5.1582e-01]
 [-9.8391e-01 -8.4824e-01 -4.7216e-01  2.6959e-01  6.7130e-01 -2.0818e-01
  -5.9458e-01 -7.9021e-01  3.1689e-01 -4.7066e-01  6.7340e-01  4.3943e-01
   4.1060e-01 -6.5613e-02 -8.4988e-01 -5.3157e-01]
 [ 3.2201e-01  8.7158e-01  4.9089e-01 -6.2104e-01  7.0423e-01  2.7399e-01
   8.8306e-01 -2.7516e-01  3.3856e-02 -8.6583e-01  1.1204e-01  5.8051e-01
   5.1569e-01  2.2451e-01 -3.0050e-01 -2.3895e-01]
 [-7.4891e-01  3.7819e-01 -4.9395e-01 -4.1021e-01 -2.8904e-01 -9.2125e-01
   3.1385e-01  3.6009e-01 -9.5419e-01  2.7758e-01  5.3901e-01  3.6960e-02
  -4.7100e-01  9.9906e-01 -4.6885e-01 -4.0576e-01]
 [-8.3052e-01  6.2307e-01 -6.1275e-01 -6.3219e-01  6.6314e-01  9.8958e-01
  -5.9136e-01  2.2756e-01  1.8860e-01 -5.2451e-01  1.8651e-01 -1.6556e-01
  -5.3296e-01  8.3498e-01  9.1206e-01  6.8685e-02]
 [ 3.0422e-01  6.1748e-01  1.5748e-01 -1.6453e-01  6.3841e-01 -9.6886e-03
  -7.2334e-02  3.1658e-01 -4.8913e-01 -7.8918e-01  4.7786e-01  6.1271e-01
  -9.3342e-01  2.6649e-02 -9.6111e-01 -1.6038e-01]
 [ 4.9931e-02 -7.4889e-01 -4.0111e-01  4.7725e-01 -2.6949e-01 -3.3871e-01
  -5.7635e-01  8.3132e-01 -8.1889e-01 -7.0556e-01  4.2519e-01 -4.6915e-01
   4.7861e-01  2.4158e-01 -6.3087e-01  2.8365e-02]
 [ 8.6798e-01 -7.8398e-01 -7.0235e-03 -1.1198e-01  5.8613e-01 -7.3481e-01
  -3.4612e-01 -6.0280e-01 -3.7355e-01  7.3696e-01  6.7952e-01  9.3543e-02
  -2.5058e-01  6.0431e-01 -1.0478e-01  6.2333e-01]
 [-1.1641e-01  9.4651e-01  2.2609e-01  7.0848e-01  4.1483e-01 -5.1631e-01
  -7.2679e-01  2.8443e-01  3.4711e-01  2.8912e-01  3.4629e-01 -5.3967e-01
  -3.5523e-01  5.6801e-01 -2.3513e-01  8.0973e-01]
 [ 3.6162e-01  3.1885e-01 -9.4045e-01  1.2302e-01 -2.5670e-01  9.8162e-01
   5.0687e-01  4.6122e-01  9.0311e-01  7.1811e-01  1.7670e-01 -5.1536e-01
  -1.9787e-01 -1.5164e-01 -9.2274e-01 -4.4450e-02]
 [-6.3891e-01 -3.8028e-01  5.2696e-02  5.2279e-01  2.5245e-01  4.1131e-01
   6.4219e-01 -1.0090e+00 -1.8706e-01  4.9931e-01  4.7680e-01  9.4672e-01
  -6.8909e-01  3.9103e-01  5.3634e-02 -1.9319e-02]
 [ 2.5085e-01  4.9212e-01  9.2681e-01  3.3875e-01 -8.9796e-01 -6.4110e-01
  -7.0710e-01  7.0376e-01  8.0578e-01 -6.9697e-01 -6.5362e-01 -2.1038e-01
   6.4773e-01 -5.8848e-01 -7.1770e-01 -7.7541e-01]
 [-4.3030e-02 -2.1858e-01 -7.6861e-01 -8.6529e-01  1.1972e-01  8.0041e-03
  -2.8517e-01 -8.1868e-01 -9.7326e-01  9.2385e-01  3.2171e-02  9.6105e-01
  -3.0886e-01 -4.8887e-01 -7.4071e-01  7.5079e-01]
 [-7.0570e-01 -6.5551e-01 -4.4591e-01 -9.6417e-01 -5.6228e-02 -4.7426e-02
   2.3310e-01  7.9160e-02  5.0890e-01  4.5614e-01 -2.9526e-01  6.8473e-01
   6.8421e-01 -2.7541e-01 -8.9199e-01 -2.6479e-01]
 [-3.1048e-01  7.7739e-01 -9.4880e-01 -7.7350e-01 -3.5766e-01  4.4429e-01
  -4.0456e-01 -2.7762e-01  8.5411e-01  7.6679e-01  3.4430e-01 -7.5578e-01
  -6.7430e-01  6.3330e-01 -5.3160e-01  6.6396e-01]
 [-3.7474e-01  7.4387e-01  6.3355e-01  7.3759e-01 -1.9927e-01  1.9434e-01
   7.4059e-01 -1.0033e+00 -3.9036e-01 -9.3228e-01  3.7265e-01 -4.3395e-01
   1.8717e-01 -8.6392e-01 -6.7676e-01 -8.1569e-01]
 [-4.5418e-01  8.4303e-01  7.9720e-01 -8.6048e-01 -2.1871e-01  4.4366e-01
  -6.1907e-02 -1.8796e-01  7.5227e-01  1.7574e-01 -4.3346e-01  8.9272e-01
  -7.2287e-01  7.7950e-01  4.7027e-01  6.5716e-02]
 [ 9.5874e-01 -3.0880e-01  4.0840e-01  8.9909e-01  5.1152e-01  7.4277e-01
   3.3796e-01 -9.3831e-01 -6.7219e-01  9.7941e-02  9.9747e-01 -9.2285e-01
   7.4327e-01 -7.1695e-01 -2.7982e-01  2.2614e-01]
 [-8.0506e-01  6.0317e-02 -4.7901e-01 -3.1205e-01  3.0451e-01 -7.3898e-01
   5.4357e-01  3.4072e-01 -5.1988e-01 -9.2644e-01  6.1433e-01  1.0065e+00
  -7.2835e-01 -7.0227e-01  8.5233e-01  1.3336e-01]
 [-8.9756e-01 -6.0632e-01 -1.7642e-01 -5.0292e-01  9.9011e-01 -9.7513e-01
   3.3277e-01 -1.2960e-01  3.8547e-01  3.9370e-01 -3.5510e-01  7.8746e-01
   8.8753e-01  3.9758e-01 -2.5631e-01 -4.3943e-01]
 [-1.0516e-01 -6.5233e-01  8.0090e-01  9.2025e-01  9.1663e-02  6.0025e-01
  -2.7060e-01  8.9412e-01 -2.3276e-01  3.4464e-01 -5.8738e-01  6.2264e-01
   6.9071e-01  9.1112e-01 -3.2982e-01  3.3309e-01]
 [ 8.7131e-01  1.8765e-01 -3.7421e-01 -6.4787e-01 -6.4164e-01  1.2186e-01
   1.8975e-01  5.4566e-01  4.7855e-01  5.2570e-01  8.4107e-01 -8.2778e-01
  -9.1172e-01 -7.7963e-01  6.7493e-01  9.3267e-02]
 [ 5.2092e-01  6.8562e-03 -6.6149e-01  6.5475e-02 -8.0233e-01 -1.5155e-01
  -3.1130e-01 -3.5569e-01  2.1715e-01  4.2972e-01 -1.4792e-01 -3.1540e-01
  -7.9512e-01 -6.4422e-01  2.4221e-01  1.2351e-01]
 [ 6.9509e-01  8.6872e-01 -6.1737e-02  4.1818e-01 -5.1561e-01 -1.0839e-01
   5.2983e-01 -3.5556e-01  9.2997e-01 -6.8875e-01  4.4548e-01  6.1068e-02
  -4.7749e-02  1.6779e-02  9.1805e-01  1.1914e-01]
 [ 5.1981e-01 -7.6262e-01 -9.9144e-01 -8.8851e-02  4.2090e-01 -5.8585e-01
  -6.8066e-01 -6.1025e-02 -5.8949e-01 -7.9060e-02  3.4885e-02 -1.4055e-01
  -4.3262e-02 -1.9090e-01 -1.3852e-01  2.1550e-01]
 [-6.7934e-01 -2.8976e-01 -4.4537e-01  5.0247e-01  3.4118e-01 -2.1525e-01
  -5.7810e-01  5.1434e-01  1.2908e-01  9.3527e-01 -1.2383e-01  3.7026e-01
  -1.5905e-01 -3.4278e-01  7.6138e-01 -9.3827e-01]
 [ 3.2782e-01 -9.8778e-01  8.4234e-01  8.1651e-02 -3.0994e-01  2.1769e-02
   7.1924e-01  3.6334e-01 -2.9149e-01  3.6381e-01  9.3604e-01  1.1636e-01
   8.0190e-01 -3.0068e-01  6.8043e-01  6.3420e-01]
 [ 8.3973e-01  3.0907e-01  9.8469e-01 -8.9718e-01 -2.6450e-01 -8.2145e-01
   1.1171e-01 -6.5889e-01 -2.0001e-01 -3.8783e-01  8.7277e-01  5.0825e-01
   3.2333e-01  6.8202e-01  9.2762e-01 -8.8297e-02]
 [ 2.2045e-01 -3.6007e-02  5.7548e-01  9.6418e-01 -8.1325e-01  9.0777e-01
   3.2892e-01  9.2980e-01 -2.8445e-01 -2.0586e-01  2.0973e-01 -2.3910e-01
   6.9980e-01 -1.8486e-01  9.9633e-01  8.6609e-01]
 [-4.8183e-01 -1.2257e-02  9.1080e-01  1.9846e-01  9.0533e-01 -7.0200e-01
   6.1558e-01  8.3345e-01  9.3808e-01 -5.8764e-01  3.8638e-01  9.8913e-01
   7.1997e-01 -2.0684e-01 -5.4364e-01  6.5955e-01]
 [-9.3568e-01 -8.4445e-01  6.7727e-02  7.4169e-01 -7.5742e-01 -5.3244e-01
   3.5307e-01  8.9139e-02 -4.4402e-01 -4.0017e-01 -6.2321e-01 -1.2777e-02
  -3.0154e-01  2.4355e-01 -6.9699e-01 -3.6925e-01]
 [ 6.3168e-01 -6.4894e-01 -5.8384e-02 -1.9652e-01  9.7605e-01  7.0428e-01
   5.5378e-01  8.8970e-01  2.0078e-01  9.8890e-01 -6.2991e-02 -5.3545e-01
   5.5773e-02 -8.5112e-02  2.7999e-01 -2.1636e-01]
 [ 2.8606e-01  2.7779e-01  6.5370e-01 -7.6257e-01  4.9117e-01 -5.0709e-01
   8.5305e-01 -9.0246e-03  9.5532e-01  5.5223e-01 -4.3728e-01  6.4623e-01
   8.8156e-01  2.9122e-01 -9.8692e-01  6.8669e-01]
 [-6.4084e-01  5.6760e-01  2.5483e-01  8.8282e-01  3.0239e-01  5.3438e-01
  -9.2482e-01  4.5595e-01 -4.8255e-01  2.7050e-01 -2.4061e-01  5.4044e-01
  -8.7704e-01 -7.2681e-01 -6.1921e-01 -4.7232e-01]
 [ 6.6629e-01  9.4500e-03  5.3885e-01  8.0449e-02 -9.7769e-03 -6.4611e-01
  -6.0068e-01  9.4365e-01  1.2648e-01 -9.3916e-01 -9.3186e-01 -9.9787e-01
   6.7702e-01  6.9334e-01 -2.1477e-01  4.0175e-01]
 [-7.7694e-02  6.7646e-01  6.3268e-01 -6.0258e-01  8.5773e-01 -2.7350e-01
  -8.2094e-01 -7.5013e-02 -1.6875e-01 -2.0730e-01  4.7792e-01 -2.6571e-01
  -5.5941e-01  1.8440e-01 -6.8078e-01 -5.1252e-01]
 [-1.0571e-01 -1.2132e-01 -4.7312e-01  7.1243e-01  3.8631e-01  7.1823e-01
  -8.7285e-01  1.0900e-01 -3.5225e-01  6.4290e-02  2.3293e-01  1.2379e-01
  -7.1633e-01 -6.4454e-01 -4.5330e-01 -7.6260e-01]
 [ 4.4316e-01 -7.6716e-01  8.5534e-01  7.1951e-01  2.1429e-02 -3.2445e-01
   7.6838e-01 -1.6719e-01  3.7849e-01  6.3727e-01 -2.7014e-02 -3.9496e-01
   8.9440e-01  9.7593e-01 -6.2074e-01 -7.7583e-01]
 [-6.0531e-01  7.2837e-01  3.5552e-01  6.1335e-01 -4.8403e-01  8.1943e-01
   3.8259e-01 -1.5697e-01 -8.3211e-01 -4.9057e-01  4.3548e-01 -6.5318e-01
  -5.8877e-01 -6.1366e-01 -5.7188e-01 -9.3256e-01]
 [ 1.4622e-01 -7.1536e-01 -8.9219e-01 -6.8101e-01 -3.3098e-01  8.5135e-01
   6.5177e-01 -6.7041e-01  8.9325e-01 -5.9866e-01  6.5703e-01  8.2170e-01
  -7.6136e-01 -5.0298e-01 -6.6433e-01  9.1842e-01]
 [-2.6617e-01  3.3383e-01  1.8522e-01 -9.1564e-01 -1.5527e-02  7.0770e-01
  -2.4742e-01  1.2131e-01 -8.5634e-01  8.2251e-01  5.4292e-01  2.8320e-01
  -4.5238e-01  1.2167e-01  6.3188e-01  3.9620e-01]
 [-4.2597e-02  2.1517e-01 -5.5388e-01 -2.9129e-01 -5.0399e-01 -1.9526e-01
   5.4454e-01  6.3704e-01  7.9057e-01  5.9669e-01 -6.7800e-01 -9.6394e-01
  -8.4349e-01  3.2560e-01 -6.6559e-01  1.1161e-01]
 [-2.2854e-01  8.3530e-01  6.1258e-01  5.1820e-01 -5.5313e-01  4.0713e-01
  -1.2879e-01 -3.9938e-01  5.7990e-01 -1.5536e-01  4.0572e-02  9.4287e-01
  -5.8900e-01 -4.6412e-01 -9.1280e-01 -3.4634e-01]
 [-7.6060e-01  8.8379e-02 -7.9764e-01  6.0588e-01  3.2613e-01  5.5708e-01
  -9.1801e-01  2.5039e-01 -6.9776e-01 -1.2529e-03 -3.8702e-01  2.9372e-01
   3.4071e-01  7.7523e-01 -9.6353e-01  4.3546e-01]
 [ 5.7535e-01 -3.7764e-01  9.2594e-01  7.6183e-01 -7.4544e-01 -4.0169e-01
  -3.1530e-01  4.2035e-01  5.4229e-01  4.6029e-01 -1.6415e-01  6.1398e-01
   5.5772e-01  7.0508e-01 -8.4426e-01 -8.4526e-01]
 [ 9.0945e-01  5.6701e-01 -7.0278e-01  6.8393e-01 -7.1664e-01  2.9430e-01
  -7.2395e-01  1.6821e-01 -5.0263e-01 -7.5930e-01  2.4707e-01 -8.3746e-01
  -8.7112e-01  9.7633e-01  5.1724e-01  4.5194e-01]
 [-7.3076e-01  5.8638e-01 -4.1213e-01 -5.6656e-01 -1.0946e-01  6.1925e-01
  -7.4963e-01 -5.8957e-01  3.5154e-01  3.1982e-01  2.6318e-01 -6.7089e-01
   4.2225e-01  8.9804e-01 -8.7260e-01 -3.3385e-01]
 [ 1.2337e-01 -7.7546e-01 -1.9835e-01 -1.1455e-02  7.5505e-01 -6.2504e-02
  -1.5646e-02 -9.0472e-01 -2.8449e-03  7.4970e-01 -6.6514e-01 -7.6599e-01
  -1.7421e-01  7.3641e-01 -8.9404e-01  6.8868e-01]
 [ 1.6852e-01 -8.5301e-01 -5.3873e-01 -6.7196e-01 -3.7029e-02 -6.5984e-01
  -5.9343e-01  6.1042e-01  5.8458e-01  5.8918e-01 -9.8221e-01 -8.0077e-01
   2.4890e-01 -4.4624e-01 -6.2590e-01  6.5085e-01]
 [ 8.8002e-03  1.6445e-01  7.1587e-01 -8.0564e-02  1.0076e-01 -4.7074e-01
   1.8565e-02 -6.4043e-01  9.6644e-01  4.3926e-01  8.7538e-01  4.8262e-01
  -5.1490e-02  4.2769e-01  5.6195e-01 -5.0847e-01]
 [-9.3794e-01 -3.3307e-01  2.4749e-01  4.7149e-01  1.1174e-01 -8.5189e-01
  -3.8333e-01  9.8597e-01  5.0167e-01 -3.2676e-02  1.5029e-01  6.6377e-01
   6.0218e-01 -3.5348e-02 -3.8529e-01  7.1196e-01]
 [-4.7703e-01  6.2475e-01 -3.9903e-01  7.7223e-02 -7.2465e-01 -8.3133e-01
   7.7549e-01  7.5037e-02  4.4439e-01  9.8588e-01 -4.0569e-01  5.9838e-01
  -2.9015e-01  8.7324e-01 -3.7449e-01  8.2564e-01]
 [-7.7058e-01  7.3304e-01  5.8629e-01  3.1616e-01 -5.2943e-01 -7.0295e-03
   7.0817e-01  1.7829e-01 -6.9368e-01 -2.6080e-01  7.9378e-01 -7.2208e-01
  -3.3626e-01  3.7316e-01  6.2616e-01 -6.2777e-01]
 [-9.6045e-01  2.2723e-01  4.6285e-02 -3.1694e-01  2.3090e-02  7.1247e-01
   8.5852e-01  2.8315e-01 -4.0744e-01  1.5979e-01  8.9114e-01 -3.8281e-01
   1.9572e-01  6.7403e-01  5.0069e-01  1.8203e-01]
 [-2.9219e-01 -8.8524e-01  1.5367e-01  9.0678e-01  7.2881e-01  3.7630e-01
  -7.5780e-01  9.0085e-01 -5.1385e-01  1.5196e-01 -8.9159e-01  3.3334e-01
  -5.6009e-01 -7.3793e-02 -5.0870e-01  1.6238e-02]
 [ 4.0500e-01  3.8210e-01 -3.6001e-01  5.6908e-02  2.3547e-01 -7.6538e-01
  -1.3970e-01  9.8643e-01 -6.4089e-01  3.1005e-01  5.8525e-01  6.2178e-01
  -6.0188e-01 -6.9768e-01  7.8777e-01  6.3147e-01]
 [-9.9628e-01  6.4430e-01  9.7245e-01 -6.4377e-01 -5.7799e-02  9.4431e-01
  -1.2302e-01 -5.2018e-01 -9.3138e-01 -9.3481e-01  1.0437e-02 -8.5944e-01
  -5.3349e-01 -1.0584e-03 -1.2384e-01  4.6801e-01]
 [-8.1034e-01  4.7947e-01  1.1552e-01 -7.0576e-01 -2.2663e-01 -9.1128e-01
   5.3102e-02  6.9563e-01 -2.7837e-01  1.3566e-01  6.3891e-01  2.9399e-01
  -9.0405e-01 -3.2669e-01 -3.4962e-02 -3.8542e-01]
 [ 6.6867e-01  9.3954e-01  3.9001e-01  7.9054e-02 -2.5443e-01  8.6688e-01
   7.0308e-01 -5.9967e-01 -4.1958e-01 -8.9788e-01 -9.3835e-01 -2.9283e-01
   2.5418e-02 -9.8428e-01  8.4202e-01 -2.2428e-01]
 [-7.5356e-01  1.7704e-01 -7.8632e-01  7.5275e-01  5.9187e-01  5.9268e-01
  -5.8619e-01  3.3530e-01  7.6322e-01 -8.7847e-01  4.1511e-01 -4.8214e-01
  -1.4185e-01 -8.1429e-01 -4.4680e-02  8.2282e-01]
 [-1.8016e-01  1.1981e-01  5.4905e-01  3.3280e-01 -4.2856e-01 -9.1154e-01
  -8.8259e-01 -1.9120e-02 -9.3383e-01 -5.4834e-01  9.7061e-01  3.4798e-01
   9.6216e-01 -4.5715e-01 -5.6505e-01 -7.6993e-01]
 [-8.6049e-02  2.9942e-01  5.7225e-01 -2.1948e-01 -7.7590e-01 -3.2586e-01
   8.1978e-01  2.8633e-01  1.6562e-01 -6.2645e-01  3.8364e-01 -6.7800e-01
  -4.6176e-01 -4.9464e-01 -1.7815e-01 -1.5738e-01]
 [-7.5961e-01  7.8945e-01  3.4388e-01  3.8422e-01 -7.8831e-01  5.7589e-01
   5.4564e-01  4.8074e-01  7.9246e-01  8.0736e-01  9.9365e-01 -4.4308e-01
   9.2202e-01  3.0361e-01 -8.5492e-01 -7.8148e-01]
 [-7.7972e-01  2.6850e-01  3.3995e-01 -1.2332e-01  4.9147e-01  5.7269e-01
   1.1703e-01  7.0523e-01  5.2368e-01  8.8165e-01 -2.5849e-01 -5.8140e-01
   3.7241e-01 -3.8936e-01 -6.6757e-01 -8.5101e-02]
 [ 3.7730e-01  9.9735e-01 -9.8208e-01  7.4558e-01 -9.1771e-01 -8.2707e-01
  -2.4113e-01 -1.5972e-01 -6.6048e-01  7.7900e-01  9.8603e-03 -8.5830e-01
   4.1814e-01  1.7396e-01 -7.5031e-01 -1.9465e-01]
 [ 1.9678e-01  8.8653e-01 -9.8530e-01  5.6833e-01  3.5537e-01  5.7653e-01
   6.1572e-02  2.4812e-01 -1.9613e-01  5.7276e-02  1.1205e-01 -4.5675e-01
  -6.5288e-01 -8.7261e-01  8.2196e-01  1.4003e-01]
 [ 2.9370e-01  9.8026e-01  6.6743e-01 -8.9236e-01 -3.3455e-01 -8.2884e-01
   6.1845e-01 -7.7162e-02  2.4623e-01 -7.2518e-01 -5.8942e-02 -6.1488e-01
   8.7342e-01  4.4549e-01  3.6216e-01 -8.0057e-01]
 [-2.8075e-01 -1.3022e-01  7.3971e-01  2.5139e-01  1.2737e-01 -8.1094e-01
  -1.7121e-01 -7.7270e-01  7.6172e-01 -2.3461e-01  7.9168e-01  6.8885e-02
  -4.8261e-02  9.8871e-01 -7.6568e-01 -1.9698e-01]
 [-7.3025e-01 -2.0662e-01  7.0593e-01 -2.5202e-01  1.6651e-01 -9.1723e-01
   7.1233e-01 -1.4636e-01  1.1512e-01 -9.1576e-01 -6.4121e-02 -4.8129e-01
  -7.1576e-01 -4.9396e-01  3.3719e-01  3.1034e-01]
 [-8.1452e-01  4.0515e-01  4.5352e-01 -7.5760e-01 -7.6957e-01  5.0004e-01
  -8.7483e-01 -4.3827e-01  9.3204e-01 -3.5454e-01  2.5117e-01 -9.6071e-01
  -5.1481e-02  5.5072e-01 -7.3276e-01 -3.6953e-01]
 [-9.4747e-01 -9.0214e-02 -8.9149e-01  9.5822e-01 -6.2424e-02  2.8028e-01
  -1.5455e-01 -1.8657e-01 -8.7510e-02 -2.7233e-01 -6.7504e-01 -6.9133e-01
   4.6317e-01  7.4728e-01  3.5854e-02  5.5563e-01]
 [-7.4628e-01 -8.6206e-01  2.5364e-01 -4.1012e-01 -6.5828e-01 -2.9640e-01
  -2.9880e-01 -6.1977e-01 -6.2685e-01 -6.9740e-01  3.9292e-01  6.8399e-01
  -9.7593e-01 -8.6328e-01 -5.2751e-01  4.0013e-01]
 [ 1.5065e-03 -4.7662e-01 -5.1463e-02 -2.7500e-01  8.7704e-01  2.9937e-01
   4.2155e-01 -5.5384e-01  7.1830e-01 -3.6571e-01  5.6526e-01 -1.8771e-01
   9.1024e-02  3.6373e-01  7.9622e-01 -6.3670e-01]
 [ 2.5047e-02 -6.6214e-01 -9.0914e-01 -5.4169e-01  3.7789e-01 -9.5155e-01
   4.1679e-01  7.4101e-01 -2.6275e-01  7.7948e-02 -6.8532e-01 -3.9585e-01
   9.8773e-01 -4.3155e-01  1.0652e-01 -9.7596e-01]
 [-3.2663e-01  6.0376e-02  7.3770e-01  1.2502e-01 -8.3698e-01  9.6666e-01
   3.3624e-01 -1.7754e-01  8.6428e-01  4.6156e-01  7.4818e-01  5.7465e-01
  -5.0174e-01  3.8902e-01 -8.3379e-01  2.4233e-02]
 [-2.1014e-01  8.6683e-01 -5.5867e-01 -8.3393e-02 -8.9801e-01 -4.7415e-01
  -5.3943e-01  5.0782e-01  9.5779e-01  1.8936e-01  1.0842e-01  9.5723e-01
  -3.9832e-01 -6.7220e-01 -1.4222e-01  1.7739e-02]
 [ 7.8414e-01  1.2633e-01 -1.4342e-01 -6.3831e-01  1.8604e-01 -3.8689e-01
   3.7065e-01 -2.0495e-01 -8.5417e-01  5.5176e-02 -6.1463e-01 -7.8728e-01
  -1.1138e-03 -2.1281e-01  4.8637e-01  1.5898e-01]
 [-2.4947e-01 -8.0143e-02 -4.8375e-01  9.2020e-01 -4.8204e-01 -1.6900e-02
  -3.4892e-01  4.3070e-02  5.2152e-01 -9.1205e-01 -3.3504e-01 -9.3293e-01
  -4.2280e-01 -4.1962e-01  7.3832e-01  3.2686e-01]
 [-7.1292e-01  3.7242e-01 -7.4462e-01  1.5451e-01 -5.5426e-01 -2.0263e-01
   9.6905e-01 -4.6661e-01  8.5708e-01 -6.8606e-01  1.2656e-01 -1.0569e-02
   2.3290e-01 -6.3499e-01 -6.7323e-01  5.3492e-01]
 [-9.0358e-01  6.7749e-01 -5.8668e-01 -4.7008e-01 -9.5006e-01 -2.6767e-02
  -1.2593e-01 -8.0732e-01 -3.8175e-01 -2.7449e-01  6.0109e-01 -8.7683e-01
   6.4903e-01 -8.3047e-01 -7.8427e-01  2.5100e-01]
 [-9.5156e-01  8.0182e-01  9.3751e-01  2.9927e-01  2.1929e-01  5.1479e-01
   2.4050e-01  6.7375e-02 -1.0510e-01 -6.3144e-01 -4.8383e-04 -3.8540e-01
  -9.9603e-01  3.3939e-01 -4.7429e-01 -9.3529e-01]
 [ 3.7584e-01  9.9320e-01 -9.3262e-01  9.6522e-01 -6.4068e-02  6.9756e-01
  -3.5492e-01  3.5629e-01 -7.1047e-01  3.7128e-01 -5.0007e-01  4.0089e-01
   5.5333e-01 -9.4150e-01 -8.8534e-01  3.3278e-01]
 [-1.4133e-01  2.4136e-01  8.8835e-01  2.4789e-01 -1.7421e-01 -9.5054e-01
  -1.0006e-01  7.6241e-01  2.0776e-01  6.5118e-01  6.5814e-01 -7.9008e-01
   6.1639e-01  6.3851e-02 -5.4591e-01 -8.8319e-01]
 [-5.8720e-01  6.4966e-01 -4.8067e-01  5.0497e-01 -1.2568e-02  8.3739e-01
   7.3920e-01 -2.1935e-01 -4.7921e-01 -1.4050e-01 -2.7952e-01 -9.8393e-01
  -5.7191e-01 -7.1994e-01 -7.0881e-01  6.8177e-01]
 [ 1.4359e-01 -6.1710e-01 -4.8320e-02  3.9306e-01 -6.0355e-01 -7.0837e-01
  -7.0740e-01 -5.8612e-01 -9.4520e-01  6.2939e-01  9.0461e-01  2.6837e-01
   9.1397e-01  3.0226e-01 -5.1464e-01  9.9711e-01]
 [ 1.0469e-01  7.8290e-01  3.1178e-01 -5.2088e-01  9.2324e-02  8.5392e-01
  -7.4370e-02  7.7668e-01 -5.3767e-01 -7.7979e-01  9.2759e-01 -2.3332e-01
   7.3480e-01 -5.9802e-01 -7.0988e-01 -5.7358e-01]
 [-8.7240e-01  6.3818e-01 -9.5798e-01 -2.6203e-01 -1.9427e-01  8.6646e-01
   2.6182e-01 -7.6307e-01 -7.6000e-01 -4.7838e-01  5.1243e-01  8.8334e-01
   8.5136e-01 -6.9990e-01  8.3949e-01 -6.3474e-02]
 [ 1.1532e-02 -1.7965e-02  8.3231e-01 -7.9565e-02 -1.1183e-02 -4.5478e-01
   8.0409e-01 -2.5709e-01 -8.7227e-01 -8.6093e-01  5.1069e-02 -6.4937e-01
   9.7460e-01  2.7585e-01 -1.1145e-01 -4.8503e-02]
 [-9.5771e-01 -2.7433e-01  2.7692e-01  5.7560e-01 -8.5799e-01 -9.8835e-01
  -8.4898e-01 -3.2877e-01 -5.8341e-01  7.3867e-01  1.5486e-01  4.5962e-02
   8.7759e-01  6.5901e-01 -5.3376e-01 -8.3153e-01]
 [ 1.5887e-01  6.1341e-01 -3.4319e-01  4.7424e-01 -5.6478e-02  2.5957e-01
   7.9226e-01 -2.6365e-01 -9.4254e-01  5.1467e-01 -7.7039e-01  7.8694e-01
  -4.6795e-01  4.9363e-01 -7.9114e-01  1.1386e-02]
 [ 4.4701e-01  4.5018e-01 -8.1603e-02 -8.5448e-01  1.3099e-01  7.6342e-01
  -1.4143e-01 -7.9191e-01  1.2452e-01 -8.0259e-01  6.3554e-01 -4.7810e-01
  -9.3746e-01  8.6028e-01 -9.7918e-01 -9.3267e-01]
 [-4.9264e-01  2.8802e-01  8.3934e-01  8.9593e-01  8.3194e-01  5.7579e-01
  -9.3751e-01  8.3350e-01  4.7742e-01 -2.0044e-01  6.7803e-01 -3.8462e-01
   9.3748e-01 -7.9597e-01  9.4932e-01  2.3696e-01]
 [ 5.5450e-01  6.1646e-02  7.9470e-02  8.3926e-01 -7.9812e-02  3.1028e-01
  -3.5691e-01  8.6650e-01 -5.0007e-01 -4.0902e-01 -6.5483e-01 -8.5066e-01
  -7.9817e-01 -5.2051e-02 -1.0682e-01 -7.3104e-01]
 [ 4.1039e-01 -3.2518e-01  7.0798e-01  5.8310e-01 -1.9655e-01 -3.5389e-01
   3.1689e-01 -5.9805e-02 -4.6499e-01 -8.2305e-01 -6.0037e-01 -4.7036e-01
   9.0593e-02 -9.4164e-02 -9.8445e-02 -7.8942e-01]
 [ 3.8188e-01  7.8170e-01 -4.0030e-01 -3.3606e-01 -6.3448e-01 -4.4925e-01
   7.5709e-01 -4.0947e-01 -2.6822e-01  9.0952e-01 -4.2489e-02  4.5251e-01
  -4.0516e-01 -4.7663e-01  5.9913e-01 -7.8250e-01]
 [-8.0387e-01 -4.4050e-02  5.1781e-01 -4.4844e-01  1.0100e+00 -8.4747e-02
   2.8655e-01  6.3785e-01  4.1948e-01  6.3545e-02  3.5456e-01  3.9457e-01
   1.3445e-01 -4.1966e-01 -3.4958e-01  1.0145e-01]
 [-5.1738e-01  3.0390e-02  5.1911e-01  7.1280e-01 -7.5930e-01  3.1100e-01
  -1.0020e+00 -6.4510e-01  3.0644e-01 -8.2778e-01  8.5755e-01  6.1708e-01
  -5.0959e-01  6.4973e-01  4.3446e-01 -5.6818e-01]
 [ 8.7080e-02  8.2392e-01  9.1254e-01  8.3612e-02  8.5512e-01 -4.6941e-01
  -1.5801e-01 -4.0554e-01 -4.8585e-01  1.7833e-01 -3.5344e-01 -3.3408e-01
  -9.7582e-01  5.8024e-01  1.6724e-01 -5.3438e-01]
 [ 5.1550e-02 -6.4160e-01 -6.8685e-01 -2.8915e-01 -2.3857e-01  9.6356e-01
  -7.4501e-01  5.8664e-02  3.5066e-01 -8.7051e-01 -5.7437e-01 -6.4145e-01
   4.1926e-02 -6.2298e-01 -7.7038e-01  4.2068e-01]
 [ 1.0143e+00  2.7506e-01 -3.1904e-01 -8.0284e-01 -7.5129e-01 -3.5327e-01
   5.8636e-01 -7.3879e-01  1.5393e-02  1.3672e-01  5.8768e-01 -2.9061e-01
  -6.5137e-01 -1.0715e-01  3.7821e-01  1.7953e-02]
 [ 2.3968e-01  4.5320e-01 -1.0950e-01 -7.6311e-01  9.4288e-01  3.0259e-01
   4.2680e-01 -5.5797e-01  7.0127e-02  3.8712e-01  7.1921e-01 -6.8113e-01
   1.7732e-01 -3.0501e-01 -8.9372e-01  4.0886e-01]
 [ 1.0081e+00 -5.9875e-01  1.0242e-01 -5.3087e-01 -6.5306e-01  8.8610e-02
  -4.1212e-01  7.7346e-01  5.1797e-01  6.8396e-01  5.9205e-01  1.4399e-01
   1.0895e-01 -7.3128e-01  5.8876e-01  1.1026e-01]
 [ 7.6508e-01  8.9401e-01  3.6319e-01 -7.3411e-01 -8.3492e-01  8.8447e-01
   5.8873e-01 -5.6861e-01  3.5183e-01  9.5220e-01 -2.2915e-01 -6.7259e-01
   8.4115e-01  1.6829e-01  2.0973e-01 -7.2855e-03]
 [ 4.2602e-01  9.1547e-01 -2.8907e-02 -5.1047e-01 -9.4146e-01  5.8783e-01
   1.1550e-01  4.0772e-01 -4.3694e-01 -8.8031e-01  1.1281e-02  7.0190e-01
   4.5958e-01 -9.4064e-01  3.2248e-01  9.6723e-01]
 [ 6.9964e-01  5.3879e-01  4.1948e-01 -9.1274e-01  8.8417e-01  8.0046e-01
   5.0670e-01 -3.6594e-01  2.7563e-01 -2.8861e-01  8.0165e-02 -5.4980e-01
   6.5463e-01 -8.4657e-01  7.5915e-01  9.7160e-01]
 [ 9.7870e-01 -9.4842e-01 -7.9318e-01 -6.7123e-01  4.9971e-01 -9.2782e-01
  -6.4243e-01  8.5087e-01  2.5768e-01  6.5377e-01 -4.8454e-01  3.2162e-01
  -5.6260e-01  8.9772e-01  4.7746e-01 -4.2421e-01]
 [ 2.6367e-01  1.6527e-01 -9.5531e-01 -5.0567e-01  1.0042e+00  7.5157e-01
  -7.7230e-01  4.6057e-01 -4.5714e-01  3.7680e-01 -3.0779e-01  8.1490e-01
   1.4708e-01  3.0870e-01  7.0556e-01  5.0900e-01]
 [-9.3711e-01  6.7394e-01  8.3584e-01 -8.3235e-01  7.7428e-01 -5.3047e-01
   4.5297e-01 -1.5458e-01  7.4564e-01  3.6494e-01  4.1044e-01  4.1425e-01
  -9.9894e-01  3.6453e-01  3.3929e-01  9.7982e-01]
 [ 7.9421e-01 -4.7873e-01  9.8618e-01  9.5201e-01 -9.2010e-01 -9.3270e-01
  -9.1941e-01 -1.8483e-01  3.5539e-01 -1.3255e-01 -6.6688e-01 -4.0480e-01
   6.7797e-01 -6.2913e-01  9.9850e-01 -4.6123e-03]
 [ 5.2584e-01  8.6285e-01 -3.5465e-01 -8.3011e-01 -7.6499e-01  1.1492e-01
   5.5940e-02  7.4867e-01 -3.6950e-01 -3.1667e-01  4.6358e-01  3.3406e-02
   5.4482e-01 -2.4585e-01 -5.6038e-01  8.5744e-01]
 [-6.0576e-01 -7.8579e-01  1.7098e-01  3.1259e-01  8.5894e-01 -7.6200e-01
   9.8168e-01 -3.3472e-01  8.1069e-02 -6.5109e-01  6.6628e-01 -9.5988e-01
   7.4002e-01 -9.6720e-01  5.5501e-01  3.6840e-01]
 [-5.5281e-01 -4.2002e-01  8.5283e-01 -8.9108e-01 -6.5452e-01 -7.5483e-01
   8.8937e-01 -2.6599e-01  4.3920e-01  6.8613e-01  1.6682e-01 -9.0353e-01
   1.5503e-01  6.6836e-01 -5.0716e-01 -9.0519e-01]
 [ 1.8058e-02 -6.8147e-01 -6.4621e-01  9.2614e-01  2.8178e-01 -4.8944e-02
  -7.4367e-01 -4.7531e-01 -4.6873e-01 -2.1472e-01  6.5959e-01 -7.6661e-02
   8.1909e-02  2.0783e-01 -4.2356e-01 -9.5714e-01]
 [ 7.8447e-02  7.0117e-01  3.8267e-01  7.2784e-01  3.1575e-01  6.1629e-02
  -3.6752e-01 -7.0412e-01  6.6385e-01 -8.5434e-01  2.5831e-01  1.4116e-01
   5.3829e-01  6.3517e-01  7.7071e-02  1.0534e-01]
 [ 9.8015e-01  5.0596e-01  3.2399e-01  7.7221e-01 -1.1327e-01  9.0260e-01
  -4.6256e-01 -3.4428e-01  7.3779e-01  9.7426e-01  8.6506e-02 -1.4986e-02
  -6.7531e-01 -8.6220e-01 -6.6161e-01  3.1591e-01]
 [ 5.9679e-01 -6.1020e-01 -9.0842e-01  1.8409e-01  9.2368e-01  9.1499e-01
  -2.4128e-01 -4.4040e-01  4.9849e-01 -8.6917e-01  5.1363e-01 -3.4895e-01
   6.2309e-01  9.9408e-01 -4.0598e-01 -5.4653e-01]
 [-1.2393e-01  6.2515e-01 -4.8101e-01 -4.6731e-01 -2.4207e-01  5.2694e-01
  -8.8698e-01 -8.5856e-01  9.3578e-01  3.8165e-01  6.0896e-01 -3.0099e-01
   2.6452e-01 -3.3715e-01  6.6034e-01 -3.6498e-01]
 [-8.8432e-01  9.2223e-01  2.3716e-01  1.6591e-01  6.5601e-01 -9.9991e-01
  -7.8967e-01  1.7180e-01  6.7425e-01 -9.0887e-01 -2.0257e-03  4.5723e-01
   3.1968e-01  9.0179e-01  3.5443e-01  2.7607e-01]
 [ 5.5632e-01  3.4967e-01 -9.6726e-01  2.3076e-01  2.5402e-01 -7.2527e-01
  -1.9081e-01 -6.1225e-01  7.3000e-01  8.5129e-01  1.0702e-01  5.6465e-01
  -4.3022e-01  6.4663e-01  8.0313e-01  5.4796e-01]
 [ 6.7707e-01  8.8649e-01  1.5044e-01 -8.3800e-01 -7.5253e-01 -6.1104e-01
   9.9038e-01  1.0116e-01  8.7970e-01 -7.7517e-01 -7.0573e-01 -6.7762e-01
  -5.8866e-01 -7.3338e-01  4.8207e-01  2.0667e-01]
 [-3.0231e-01 -5.6766e-01 -7.1731e-01 -8.6612e-03 -3.0351e-02  4.0207e-02
  -5.1562e-01  8.3261e-01  8.7463e-02  7.1197e-01  4.0672e-01 -9.4148e-01
  -1.7605e-01 -1.9285e-01  4.0739e-01 -2.3071e-01]
 [ 8.9480e-01 -4.0070e-01  4.4860e-02  8.0350e-01 -3.5029e-01 -6.7312e-03
  -9.9924e-01  1.5911e-01 -2.0349e-01 -5.3299e-01  3.1631e-01 -2.1808e-01
  -1.4950e-01 -2.3745e-01 -4.4427e-01 -6.5839e-01]
 [ 7.2332e-01 -1.9900e-01  7.5491e-01 -7.6809e-02 -3.0084e-02  3.7985e-01
   9.0490e-01 -3.1131e-01  2.6025e-01  5.6520e-01  3.3192e-01 -6.7617e-01
   7.3300e-01  7.9790e-01  6.2256e-01 -9.4964e-01]
 [-1.9130e-02  3.4086e-01 -7.2036e-01  4.2780e-01  7.9050e-01  2.1118e-01
  -9.3050e-01 -8.5078e-01 -3.7912e-01 -7.2870e-01  1.5487e-01  8.1219e-01
   1.7995e-01  1.0156e-01 -6.2885e-01  9.8782e-01]
 [ 9.9736e-01 -6.2786e-01  4.3859e-01 -2.7846e-01 -3.4337e-01 -1.5257e-01
  -2.1651e-01 -2.8353e-01  7.4648e-01  1.0041e+00  9.4557e-01  9.7404e-01
  -5.9581e-01  2.3843e-01 -8.3628e-01 -5.8326e-01]
 [ 7.1044e-01 -3.3464e-01 -2.9234e-01 -9.6110e-01  6.6886e-01 -2.9004e-01
   7.7765e-01  4.5912e-01 -4.1291e-01  8.7666e-01  7.7752e-02 -5.1646e-01
   6.2051e-01  5.4072e-01 -5.9103e-01  9.9751e-01]
 [-5.8123e-01  7.4286e-01  2.0381e-01 -4.9354e-01  1.2606e-02  3.1346e-01
  -6.7890e-01  5.7662e-01  7.2981e-01  1.0000e+00 -8.0706e-01  7.9397e-01
   1.7474e-01 -2.8525e-01  5.7951e-01 -1.6610e-01]
 [-2.7022e-01  1.1735e-01  2.8655e-02 -5.9724e-01  7.8894e-01  5.4874e-01
  -9.8990e-01  1.0866e-01  6.5354e-01  3.9966e-01 -1.7988e-01 -5.2498e-01
   7.5939e-01 -4.8353e-01 -7.9767e-01  3.7797e-01]
 [ 3.4818e-01 -9.8916e-01  8.8454e-01  4.3902e-01  1.2555e-01  8.2425e-01
   7.3169e-01 -5.7760e-02  7.5629e-01  9.4969e-01 -2.1086e-01  7.1320e-01
  -6.6454e-01  8.8824e-01  6.7868e-01  9.6296e-01]
 [-8.6601e-02 -2.9776e-01 -3.0344e-01 -5.3912e-01 -6.3146e-02 -5.1183e-01
  -9.5095e-02  7.8753e-01  8.9216e-01 -2.3987e-01  3.1078e-01 -1.9810e-01
   1.5758e-01  7.8471e-01 -3.8293e-01 -5.5822e-01]
 [ 1.8981e-01  5.1724e-01 -1.4453e-01  2.0706e-01 -7.5941e-01  4.4482e-01
   2.6130e-01 -2.2177e-01  6.4029e-02  4.1801e-01 -2.8542e-02  7.7312e-01
   8.9259e-01 -3.7128e-01  9.0549e-01  4.0454e-01]
 [ 5.0674e-01 -2.6550e-01 -9.7517e-01  5.7859e-01 -3.2797e-01 -4.7785e-01
  -6.1684e-01 -8.4563e-01  6.3173e-01 -7.2988e-02  3.2259e-01 -3.3595e-01
  -4.5514e-02  4.5529e-01 -7.2808e-01 -1.4070e-01]
 [ 6.4226e-01 -9.9078e-01  9.1607e-01 -5.3645e-01  5.1378e-01  4.2228e-01
   4.5694e-01  2.0809e-01 -1.9583e-01  5.5769e-01 -9.9998e-01  2.3242e-01
  -2.0647e-01  2.0571e-01  6.1313e-01 -7.4082e-01]
 [ 8.8113e-01  9.1271e-01 -1.2164e-01  1.0410e-01 -2.9472e-01  5.3058e-01
  -4.3337e-01  4.3917e-01  5.5490e-01  4.6665e-01 -4.7992e-01  2.9013e-02
   6.1853e-01 -6.0509e-01  4.7146e-01  6.7960e-01]
 [ 2.7967e-01 -5.2787e-01 -5.3690e-01  5.2924e-01 -9.7590e-01 -2.3113e-01
  -4.2862e-02 -1.0107e+00 -1.6965e-01  9.9687e-01  9.6042e-01 -8.1240e-01
   4.8576e-01  2.1677e-01 -8.6299e-01  7.4827e-01]
 [ 2.3153e-01  3.6890e-01 -9.2319e-01 -9.0551e-01  7.5540e-01  1.2196e-01
  -3.6351e-01  6.1016e-01 -5.0096e-01 -2.5811e-01 -2.8881e-01 -7.5480e-01
  -7.0971e-01  6.7180e-01 -6.8404e-02 -6.8496e-01]
 [ 3.7558e-01 -5.2921e-01  9.1037e-01  4.8853e-01 -2.2232e-01  7.2099e-01
  -3.2325e-01  4.9992e-01 -6.7700e-02 -7.6327e-01 -6.1715e-01  8.3533e-01
  -7.5732e-01 -4.6178e-01 -9.5552e-01 -1.6554e-01]
 [-1.9965e-01 -6.8982e-01 -1.3911e-01  2.1541e-01 -8.6735e-01  9.2653e-01
   6.8254e-01  8.7685e-01 -1.6485e-02  1.4527e-02 -9.9043e-01 -7.6900e-01
  -3.7289e-02 -6.5945e-01  9.4939e-02  1.1448e-01]
 [-2.3329e-01  9.2682e-01 -5.4320e-02 -2.1486e-02  8.6738e-01  1.2758e-01
   2.2367e-01  4.2368e-01  9.0079e-01  8.1796e-01 -6.4445e-01 -7.8488e-01
  -2.1710e-01  5.7541e-02 -4.0949e-01  9.2744e-01]
 [ 1.3703e-01  9.2890e-01  1.2260e-01  3.7621e-01  9.8383e-01  9.6683e-01
  -2.7966e-01  9.5650e-01  6.9990e-01  8.1849e-01  5.9766e-02 -4.7283e-01
   2.7783e-01  7.0625e-01  2.5263e-01 -8.8475e-01]
 [ 8.0349e-01 -6.5020e-02  4.1802e-01  7.7176e-01 -5.9252e-01 -9.1099e-01
  -7.6357e-01 -4.9126e-01  9.0059e-01 -1.4137e-01  5.5076e-01 -8.6118e-01
  -5.2315e-01 -7.8262e-01 -4.3009e-01  6.8569e-01]
 [-8.0104e-01 -6.0496e-01 -5.9336e-01 -6.2313e-01 -1.4276e-01 -7.9495e-01
  -3.3197e-01 -5.1238e-01 -5.3055e-01 -9.0863e-02 -5.1219e-01 -5.1139e-02
   8.4161e-01 -9.8388e-02 -5.6538e-01  7.2323e-01]
 [ 2.1846e-01  2.1596e-01 -6.6192e-01  1.6498e-01 -2.0547e-01  1.9926e-01
  -5.2725e-01 -4.3631e-01  1.7159e-01 -6.5411e-01 -7.8214e-01 -1.6188e-01
  -1.2214e-02 -3.7212e-01  9.5748e-01  9.5411e-01]
 [ 5.8229e-01  2.9112e-01 -4.4017e-01  4.6593e-01  6.8992e-01  8.6958e-01
  -2.0618e-01  1.0284e-01  7.8296e-03  2.4587e-01 -6.9569e-01 -9.4804e-01
  -6.9920e-01  1.2926e-01  6.5487e-01 -4.6235e-01]
 [-8.1323e-02 -3.7639e-01  5.8971e-01 -2.5308e-01  9.4580e-01  6.6444e-01
   4.2598e-01 -2.0091e-01 -7.1774e-01  4.7682e-02  1.1978e-01  3.3251e-01
   6.1390e-01 -3.1219e-01  9.3266e-01  2.8686e-01]
 [-3.4467e-01  7.9542e-01 -4.5178e-01 -8.9389e-02 -2.0004e-01  2.6192e-01
  -9.3522e-01  6.1053e-01 -3.5199e-01 -2.7926e-01 -4.9747e-01  4.7299e-01
  -9.5720e-01  8.9737e-01  3.4951e-01  9.4458e-01]
 [-2.6697e-01 -3.9315e-01  3.2090e-02 -3.6865e-01 -3.6927e-01  8.2374e-01
  -2.4511e-01  4.9707e-01 -3.0119e-01  8.6867e-01  3.6533e-01 -8.9418e-01
   7.0260e-01  6.6674e-01  2.3329e-01  4.5526e-01]
 [-9.2696e-01 -2.5815e-01  8.7031e-02 -8.2196e-01  2.0691e-01 -1.2342e-01
   4.8613e-01  5.2003e-01  1.4723e-01  4.0459e-01  8.4214e-01 -1.5049e-01
   6.7895e-01 -3.4916e-01  7.3019e-01 -5.5387e-01]
 [-6.1028e-01  6.3358e-01 -1.7969e-01 -7.5961e-01 -6.9798e-02  6.0546e-01
  -4.1376e-01 -3.0925e-01 -4.4476e-01  8.9858e-02 -9.3549e-01 -3.7360e-01
  -8.0869e-01 -4.6968e-01  6.6619e-02  3.7660e-01]
 [-4.8638e-01 -5.6979e-02  4.6815e-01  5.2311e-01 -3.7429e-01  2.7495e-01
  -2.4189e-01  1.1558e-01  9.8707e-01  6.4399e-01 -7.8248e-01  6.6806e-01
  -3.4905e-01 -4.4240e-01 -1.2703e-02  6.3021e-01]
 [-4.0603e-01  2.2778e-01 -4.0805e-01  2.8209e-01  5.3964e-01 -2.2016e-02
   1.9584e-01 -3.7330e-01 -5.5220e-01 -3.0374e-01  1.5183e-01 -6.6923e-01
   1.8654e-01 -3.5677e-01 -7.2993e-01 -6.5389e-01]
 [ 6.1372e-01 -9.9349e-01 -9.7161e-01 -5.9838e-01  5.7061e-01  4.6967e-01
  -3.0261e-01  4.7604e-01 -7.0817e-01  7.6625e-01  4.0124e-01  2.6337e-01
  -7.9903e-01  1.5139e-01 -1.7081e-01  1.0611e-01]
 [-6.7095e-02  8.7033e-02 -9.1284e-01 -1.6732e-01  1.0019e+00  3.0976e-01
  -5.4615e-01  9.7122e-01 -6.1751e-01 -9.4995e-01  3.2309e-01 -2.1983e-01
   9.2736e-01 -5.1928e-01  3.6204e-01 -5.9246e-01]
 [ 1.6348e-01  1.1314e-01  6.8117e-01  7.3084e-02  4.5754e-01 -7.0692e-01
  -6.5367e-01  4.2346e-01 -2.4745e-02 -2.6132e-01  5.2163e-01 -4.5893e-01
   3.1651e-01  9.7559e-01  7.2164e-01  5.3300e-01]
 [ 4.6235e-01 -4.0970e-01  6.2612e-03  3.8375e-01  9.6372e-01  2.0552e-01
  -1.6659e-01  1.8840e-01  3.3701e-02  2.1254e-01 -3.5115e-02  7.3455e-01
   6.6224e-01 -9.8671e-01 -9.9358e-01  8.2972e-01]
 [ 1.9895e-01  8.6466e-01 -7.7530e-01  6.8769e-01  1.8044e-01 -3.5807e-01
   6.4593e-01  5.9728e-01  1.7862e-01  3.8541e-02 -6.2298e-01  6.4856e-01
  -5.1146e-01 -3.4793e-01 -4.2624e-02 -1.5204e-01]
 [-5.1366e-01  9.4554e-01 -2.0591e-01 -6.5861e-01  6.0974e-01  2.3146e-01
   6.7822e-01  2.5563e-01  2.3883e-01  8.9032e-01  2.5801e-02 -8.2500e-01
   5.5582e-01  4.9475e-03 -6.5191e-01 -8.3417e-01]
 [-3.8975e-01 -4.3818e-01  5.5459e-01 -2.8696e-01  3.0211e-02 -5.5522e-02
  -8.5100e-01 -1.8879e-02  1.5170e-01  4.0857e-01 -4.8204e-01  7.2586e-01
  -2.2914e-01 -1.5877e-01  6.0785e-01 -8.3978e-01]
 [ 7.5688e-01  2.4124e-01  8.0700e-01  2.2174e-01 -2.4547e-01 -7.6268e-03
   1.2706e-01  4.4247e-01 -2.4028e-01  6.1176e-01  8.8733e-01  8.7216e-01
  -3.2208e-01 -3.0582e-01  3.1280e-01 -5.8352e-01]
 [ 3.1410e-01 -8.3837e-01 -5.6992e-01 -1.8483e-01  5.4181e-01 -5.5884e-01
   9.5268e-01  5.7790e-01 -7.3119e-01  5.9781e-02  7.1032e-02  6.5768e-01
   3.5541e-01  3.8019e-01 -6.4205e-01 -9.4337e-02]
 [-4.7720e-01 -3.3749e-01  2.2258e-02  9.5867e-01 -8.2275e-01  1.9943e-03
  -4.3446e-01  8.1723e-01 -6.1292e-01  4.2157e-01  2.8153e-02 -5.1693e-01
  -4.7893e-01  4.2824e-01  1.7859e-01  9.5593e-01]
 [ 1.9872e-02  6.6283e-01  7.0191e-01  1.0662e-02  9.3264e-01 -1.5922e-01
  -3.4185e-01  3.4428e-01 -4.0075e-01 -3.8689e-01  4.9383e-01 -8.1672e-01
  -5.6621e-01 -9.4082e-02  7.1788e-01 -4.6710e-01]
 [ 8.2541e-01  8.0087e-01 -9.7645e-01 -7.5724e-01 -5.6726e-01 -8.5541e-01
  -7.1639e-01  6.1520e-01  6.9686e-01  6.4677e-01  6.8145e-01  3.8220e-01
  -7.3892e-01  1.1564e-02  4.2517e-01 -2.2707e-01]
 [-3.9644e-01  5.1042e-01 -9.5401e-01 -1.2948e-01  8.3966e-01  6.4814e-01
  -8.0346e-01 -3.4361e-01  9.9913e-02 -4.3839e-02 -8.3224e-01 -5.2517e-01
   8.1098e-01 -1.0159e-01  7.3855e-01  7.9443e-01]
 [ 7.2197e-01  6.1168e-01  7.6051e-01  9.1460e-01  9.4489e-01 -9.3740e-01
  -4.7163e-01  5.5018e-01 -1.5461e-01 -3.4769e-01  6.7833e-01  3.0352e-01
  -6.8021e-01  3.5802e-01  7.7745e-01  5.9726e-02]
 [-1.6465e-01 -5.7625e-02  1.1511e-01 -4.2745e-01 -3.7243e-01  4.5292e-01
   1.2560e-01  8.2511e-01  7.9354e-01 -7.6194e-01 -5.6492e-01  3.6719e-01
  -1.9882e-01 -5.2394e-01  3.6597e-01 -1.4827e-01]
 [ 3.1727e-01  5.5049e-01  8.0744e-01  5.2954e-03 -7.3111e-01 -9.0867e-01
   8.1812e-01 -5.7857e-01  1.1753e-01 -6.0711e-01  6.8717e-01  2.8916e-01
   8.3077e-01 -2.4573e-01  6.0328e-01 -5.1661e-01]
 [ 1.8084e-01  7.0869e-01 -4.3219e-01 -8.4513e-01 -2.9596e-01 -7.2545e-01
   6.7527e-02  7.8602e-01  9.6016e-01 -8.6348e-01  4.9708e-01 -9.0784e-01
  -9.7796e-01 -8.1101e-01  5.6941e-02  8.9625e-01]
 [ 7.7680e-01  5.1153e-01  8.0995e-01 -5.4968e-01  4.7245e-01 -8.0426e-01
   5.7974e-01  1.6764e-02 -1.7239e-01 -3.9873e-01 -3.6730e-01  5.3624e-01
  -7.9971e-01  1.5605e-01  1.1187e-02 -4.0491e-01]
 [ 2.5384e-01 -8.6038e-01  3.2253e-01  5.1456e-01 -2.8371e-01 -5.6818e-01
  -3.7215e-01  2.9423e-01  7.2105e-01 -8.1207e-02  2.4019e-01  2.3360e-01
   7.9420e-01  3.5374e-01 -5.9905e-01 -1.5923e-01]
 [ 4.6900e-02  1.3473e-01 -5.1917e-01 -9.8956e-01  8.6275e-01  3.4924e-01
   9.0295e-01 -9.7840e-02  6.2737e-01 -6.9896e-01  1.3024e-01 -6.4768e-01
   4.4142e-01  5.4759e-02  4.8705e-01 -1.9637e-01]
 [ 9.7268e-01 -3.7222e-01  3.2842e-01  7.6930e-02 -8.7589e-01  9.4638e-01
  -4.3626e-01  5.7608e-01  1.6904e-01 -1.1378e-01 -7.8462e-01 -2.7820e-01
   9.2395e-01  1.7630e-01  8.0043e-01 -7.4646e-01]
 [ 2.5097e-01  8.5875e-01 -5.5195e-01  1.9190e-01 -4.7629e-01  1.6581e-01
  -8.6435e-01 -1.3534e-01 -1.0881e-01 -7.9046e-01 -9.6298e-01 -1.1277e-01
   7.5993e-01  8.1937e-01 -5.5962e-01 -5.5916e-01]
 [-8.5246e-01 -2.3452e-01  8.6187e-01  2.7641e-01 -4.2913e-01  1.4545e-01
   9.0039e-01  3.3685e-02 -2.1506e-01  5.7549e-01 -6.1707e-01 -4.6770e-01
   3.8341e-01  7.6774e-01 -8.2337e-01  9.1263e-01]
 [-4.6131e-01  3.6181e-01  3.5837e-01 -1.4696e-01  7.6261e-01 -6.4726e-01
   9.2329e-01  4.2143e-01 -8.8850e-01  7.7603e-02  6.4220e-01 -6.9251e-01
   5.6550e-01  2.0111e-01  2.7540e-01 -4.2671e-01]
 [ 5.2628e-02 -8.3985e-01  1.8024e-01 -4.0303e-01 -6.1039e-01 -4.8305e-01
   2.5603e-01 -2.6437e-02  7.5916e-01  3.9898e-01 -2.6455e-01 -7.6415e-01
  -4.8676e-01 -4.1467e-01 -6.6066e-01  2.1430e-01]
 [ 7.0688e-01 -2.2350e-01  3.8985e-01  5.7994e-01 -3.3970e-01 -1.0169e-01
  -5.7292e-01 -3.4536e-01 -4.4108e-01 -5.3977e-01  7.8024e-01  5.0838e-02
  -6.1392e-01  5.3374e-01  7.5695e-01  1.4500e-01]
 [-3.8172e-01 -3.1559e-01 -6.9221e-01  9.2548e-01 -2.1285e-01 -7.6961e-01
   4.7013e-01 -4.2293e-01 -7.6528e-01  8.8898e-01 -9.5546e-01  9.9386e-01
   7.0340e-01 -3.7538e-02  4.0026e-01 -1.3276e-01]
 [-8.8201e-01  4.6435e-01  6.8986e-01  4.7055e-01  6.7987e-01 -8.1406e-01
   9.1116e-01  4.1704e-01  7.3003e-01 -6.6943e-01 -2.6127e-01  6.5845e-01
  -7.5066e-01 -3.9995e-01 -1.4960e-01  5.1348e-01]
 [-6.6187e-01  8.8393e-01  7.7011e-01 -1.1863e-01 -7.3575e-01 -5.0532e-03
  -7.8583e-02  3.8891e-01  9.1220e-01 -2.8119e-01  1.4689e-01  7.3302e-01
  -7.6347e-01  3.7303e-01  5.3350e-01  8.4889e-01]
 [-4.1606e-01 -2.9857e-01  3.9840e-01  9.3823e-02 -3.6158e-01 -6.1854e-01
   1.6155e-02 -4.1595e-01 -4.5453e-01 -8.7395e-01  9.1947e-01  7.6563e-01
  -2.8113e-01 -3.0393e-01 -1.2268e-01 -9.6868e-01]
 [ 2.1992e-02  4.6706e-01 -6.5141e-01  8.0496e-01 -6.8595e-01  6.6726e-01
  -8.7466e-01 -1.7418e-01 -5.0841e-01 -5.7511e-01 -8.4803e-02 -1.1052e-01
  -1.0155e-01  4.0685e-01  2.7047e-01  9.5199e-01]
 [ 8.7106e-01 -7.5457e-01  9.5457e-01  4.9680e-01  3.9341e-01 -6.6920e-01
  -2.0806e-01  5.5130e-01  8.3836e-01 -5.6953e-01 -9.3430e-01  7.3283e-01
  -3.8972e-01  4.6150e-03  7.7539e-02 -9.3188e-01]
 [ 1.0009e+00  6.0528e-01  9.5410e-01  2.5086e-01  2.7967e-01 -6.4106e-01
   4.2299e-01  4.1707e-01  8.7231e-01 -8.0641e-01  9.8723e-01 -4.7480e-01
  -4.8519e-01 -4.2429e-01 -8.5570e-01  2.7508e-01]
 [ 8.4844e-01  5.1062e-02 -9.3173e-01  9.4105e-01 -8.7627e-01  2.1876e-01
  -5.9100e-01  6.1838e-01  6.2668e-01  7.5248e-01 -3.4680e-01 -8.8730e-01
   8.4632e-02 -4.0117e-01  7.3195e-01 -3.0964e-02]
 [ 6.5564e-01  7.2383e-01 -7.8366e-01  5.1406e-01  1.8686e-01 -8.1939e-01
  -8.6205e-01  7.4777e-01 -1.6353e-01  6.8696e-01 -3.0426e-01  6.6252e-01
  -1.7103e-01  9.4736e-01 -5.4751e-01 -5.8578e-01]
 [ 7.1839e-01  3.1197e-02  8.8197e-01 -9.7642e-02  7.9051e-01 -7.0278e-01
  -1.0089e+00 -4.3620e-02 -1.9542e-01  4.6128e-01 -4.8344e-01 -3.6715e-01
  -3.3719e-01  6.1132e-01 -3.4350e-01  7.4547e-01]
 [ 1.5357e-01  1.8237e-01  2.1899e-01  3.4590e-02  2.0643e-01  4.1601e-02
  -1.4510e-01 -7.0639e-01  8.4601e-01 -4.4995e-01 -3.9600e-01  8.6924e-01
   4.5866e-01 -6.6323e-01 -6.5759e-01 -9.4892e-01]
 [ 8.6931e-01 -5.6721e-01 -7.7355e-02  4.1056e-02  9.6839e-01 -9.2471e-01
   3.0827e-01  6.2754e-01 -4.7864e-01  7.7308e-01 -8.8796e-01 -8.7821e-01
  -2.6478e-02  5.2894e-01  5.4248e-01 -3.5668e-01]
 [-4.5120e-01  9.3249e-01 -9.5373e-01  3.5252e-01  3.6163e-01  4.1331e-01
  -9.1441e-01 -7.7784e-01 -7.1335e-01 -6.1014e-01  4.8738e-01  6.1856e-01
   3.9239e-02  1.8326e-01 -3.4998e-01 -8.7059e-01]
 [-2.7496e-01  4.2421e-01  7.9653e-01  7.5618e-01 -7.6609e-01  4.2701e-02
  -5.5471e-01  1.5566e-01 -5.5015e-01 -3.6178e-01  8.6402e-01 -9.3391e-01
  -1.6949e-01 -5.1070e-02  8.1271e-02  2.5027e-02]
 [-4.3009e-01 -7.0392e-01  4.5982e-01 -7.6859e-01  8.5111e-01  2.8611e-01
  -4.9600e-01  4.5061e-01 -5.4646e-01 -9.6926e-01  8.4886e-01 -8.6894e-02
  -3.5760e-01  3.8140e-01 -5.8784e-01  9.5575e-01]
 [-4.5143e-01 -7.0440e-01 -4.8828e-01 -6.7162e-01 -6.8122e-01 -9.5897e-01
   6.8871e-01  4.6611e-01  2.7780e-01 -3.0168e-01 -5.4810e-01  3.6906e-01
  -4.8184e-01  8.5910e-01  8.5557e-01 -7.0144e-02]
 [ 8.0288e-01  1.2216e-01 -6.3273e-01  1.7153e-01  3.2263e-02 -7.8387e-01
   3.3464e-01  8.7695e-02 -6.9184e-01  2.1163e-01  3.4685e-01  1.9314e-01
  -2.0546e-01  2.4683e-01  6.5847e-01 -1.2452e-01]
 [-8.7596e-01 -7.0703e-01  5.8082e-01  6.1669e-01  8.3701e-01 -6.9187e-01
   2.8774e-01 -1.2928e-01 -2.2262e-01  5.4749e-01  5.0583e-01  8.8700e-01
   5.6195e-01  7.8282e-01 -6.6496e-01  9.2089e-02]
 [-9.0328e-01 -1.1354e-01  7.9236e-02 -5.5207e-01 -9.4188e-01  5.1079e-01
   9.9434e-01  4.3871e-01  6.8849e-01 -2.3257e-02 -2.2422e-01  9.4971e-01
  -3.5403e-01  9.1237e-01 -2.8455e-01 -7.6497e-03]
 [ 2.5702e-01  8.3770e-01 -4.3747e-01  1.0471e-01 -1.2990e-01  9.5815e-01
  -2.5743e-01  9.8086e-01  4.5486e-01  8.6226e-01 -8.1110e-01 -6.7448e-01
   6.0675e-01  7.0947e-01 -4.1338e-01 -9.4712e-01]
 [-9.8013e-01  3.6417e-02 -9.3129e-01  1.5429e-01  4.1263e-01  5.0092e-01
  -7.1620e-01  4.1342e-01 -8.8552e-02  1.1619e-01 -5.1619e-01 -8.0689e-01
   6.3675e-01 -6.3638e-01 -6.1686e-01 -4.0750e-01]
 [ 8.4617e-01 -4.0382e-01 -7.7525e-01  8.7446e-01  5.7190e-01 -9.6390e-02
  -1.6067e-01 -2.4645e-01 -8.8630e-01  8.8371e-02 -5.2692e-02 -4.6093e-01
  -8.1727e-01  3.7333e-01 -9.8165e-01  5.8042e-01]
 [-8.5130e-01 -3.4475e-01 -8.5106e-01 -1.8656e-01  9.2330e-01 -1.6574e-01
   1.8879e-01 -5.1680e-01  8.3048e-01  2.0384e-01 -6.7809e-02  8.7543e-01
  -4.3688e-01  2.9383e-01 -6.7916e-01  8.7492e-01]
 [-7.2985e-02  6.9373e-01  5.6768e-01 -5.9852e-01  6.7294e-01  3.1955e-03
  -9.4751e-01 -9.4978e-01  3.7331e-01 -6.4396e-02  1.6805e-01 -5.7979e-01
  -9.3870e-01  4.1680e-01  7.2693e-01 -3.9116e-01]
 [ 5.7757e-01 -7.6423e-01  8.9425e-01  9.8995e-01 -7.6801e-01  1.0130e-01
  -8.0302e-01 -8.0249e-01 -3.1912e-01  1.9335e-01  4.2021e-01  8.0029e-01
   5.1018e-01 -3.1060e-02  5.3759e-01  8.8517e-01]
 [-3.3305e-01  2.3724e-01  5.1945e-01  3.9628e-01 -4.9675e-01  7.3774e-01
  -9.2628e-01  4.6281e-02  2.7369e-01 -5.7305e-01  9.5033e-01  4.5157e-02
   2.6117e-01  7.9885e-02  6.2617e-01  6.2234e-01]
 [ 2.6950e-01  8.9225e-01 -3.0414e-01 -6.4823e-01  4.8918e-01  9.0162e-01
   5.1295e-01  9.4813e-01 -4.6502e-01  3.9186e-01 -6.6697e-02  7.0894e-01
  -3.5753e-01  3.6189e-01  2.1778e-01 -3.1617e-02]
 [-4.6226e-01  5.1903e-01  6.2193e-01  1.2465e-01  1.3070e-01  2.8376e-01
   9.2180e-01 -3.2815e-01 -8.4172e-01  4.6117e-01 -1.7468e-01  2.8649e-01
  -2.5255e-01 -5.8333e-01  5.6261e-01  8.5717e-01]
 [-1.9686e-01  2.5319e-01  1.0009e+00 -2.2653e-01 -3.0704e-01  9.3730e-01
  -3.2669e-02 -9.4365e-01 -3.9877e-01  4.7098e-01  8.7396e-01 -8.3748e-01
  -6.3876e-02 -8.2592e-01  4.9869e-01 -1.4136e-01]
 [ 1.5456e-01  6.5311e-01 -3.9644e-01 -9.3898e-01  4.3890e-01 -1.9140e-01
  -4.7533e-01  3.3713e-01 -5.3782e-01 -9.5621e-01  9.2415e-01 -5.4734e-01
  -5.7286e-02 -2.4941e-01 -8.0062e-01  6.7902e-01]
 [ 2.8999e-01 -2.0838e-01 -6.9033e-01  3.7065e-01 -7.9891e-01 -8.1137e-01
  -5.7067e-01 -1.7181e-01  5.7663e-01 -6.8912e-01  9.3509e-01  1.0024e+00
   3.2091e-01 -9.0922e-01  9.4876e-01  8.9291e-01]
 [ 4.2298e-02 -7.2367e-02 -5.8636e-01 -8.5647e-01 -6.1574e-01 -2.5681e-01
   4.1676e-01  4.4216e-01  1.5428e-01  5.6923e-01  2.3138e-01  7.3370e-01
  -3.3645e-01  6.3593e-02  7.6964e-01 -3.6366e-02]
 [ 4.3695e-01 -5.0517e-01  6.0659e-01 -9.6938e-01 -3.0150e-01  7.0733e-02
  -7.9432e-01 -2.3783e-01 -1.8714e-01  3.9504e-01 -5.0432e-02  5.9862e-01
  -4.4117e-01  9.6916e-01 -2.5631e-01 -7.5760e-01]
 [-7.2819e-01 -9.7444e-01  8.8009e-01 -1.0188e-01 -4.3244e-01 -7.8522e-01
   9.0889e-01  4.3197e-01  7.9035e-01 -2.1850e-01  5.9098e-01  3.7616e-01
   6.2804e-01  5.9497e-01 -3.4402e-01 -8.7138e-01]
 [-9.4299e-02  1.9304e-01 -8.0258e-02  3.1475e-04  7.8481e-01  9.8650e-01
   3.8642e-01  7.3798e-01 -1.0566e-01 -5.4840e-01  3.7235e-01 -8.8822e-01
   3.9911e-01  1.9003e-01  1.4771e-01  5.7003e-04]
 [-3.7709e-01 -6.5152e-01 -7.5411e-01 -5.2273e-01  3.4302e-01  3.3727e-01
   3.2099e-01  6.8664e-01 -5.2954e-03 -2.6558e-01 -4.5842e-01  1.3910e-01
   6.6788e-01 -5.2368e-01 -5.6297e-01 -5.1522e-01]
 [-3.0068e-01 -2.2696e-01 -9.3264e-01 -3.4273e-01 -6.9872e-01 -8.2983e-01
   4.0203e-02 -6.4000e-01 -7.4273e-01 -8.7057e-01  7.1651e-01  3.8644e-01
  -3.4607e-01 -9.9081e-01 -3.6927e-01 -4.7513e-01]
 [-2.5270e-01 -1.4428e-01 -2.2303e-01  1.0605e-01 -1.5698e-01  8.6240e-01
  -2.4544e-01  6.5541e-01 -8.2436e-01  6.4280e-02  2.6675e-02 -7.3841e-01
   1.2001e-01 -2.4436e-01 -3.2486e-01  5.5960e-01]
 [-7.6211e-01 -3.6161e-01 -1.6018e-02 -5.4192e-02  4.1686e-01  6.5406e-01
  -8.1943e-01  2.0978e-01 -5.9561e-01 -3.2862e-01 -1.4916e-01  2.5366e-01
  -4.6789e-01  4.7460e-01  7.4880e-01 -9.3676e-01]
 [-5.6101e-01  7.4459e-01  1.4612e-01  1.5832e-01  3.4685e-01 -1.0993e-01
   2.3200e-01  7.6380e-01  2.2381e-01 -4.2336e-01 -9.9192e-01 -7.6482e-01
   6.6224e-01  4.8591e-01 -4.2979e-01  1.6551e-01]
 [-8.6460e-01 -8.2084e-01 -5.8072e-01 -6.4572e-01  6.7031e-02 -7.2774e-01
  -3.2627e-01 -8.5886e-02 -6.4972e-01 -2.7842e-01 -1.1245e-01  3.4404e-01
   7.9251e-01 -8.3473e-01 -1.2548e-01  4.1643e-01]
 [-9.7744e-02 -8.6446e-01 -8.5424e-01  9.7081e-01  5.1762e-01  3.4158e-01
   7.8554e-01  8.5535e-02 -1.8257e-02  6.4990e-02 -8.3765e-02 -5.9586e-01
   5.4053e-01 -4.6604e-01  7.1308e-01 -1.3075e-01]
 [-1.8935e-01 -6.2925e-01 -1.5345e-01  8.2966e-01  7.6083e-01 -7.9575e-01
  -1.0796e-01 -5.9630e-01  8.6970e-01 -8.1504e-01 -7.0959e-01 -6.9505e-01
   4.8192e-01 -3.2866e-01 -1.0430e-01 -7.0854e-01]
 [ 1.9009e-01 -3.2237e-01 -9.5840e-01 -5.2033e-01  6.2601e-01  1.6834e-01
   4.5579e-01  9.3007e-01 -6.2438e-01  5.7439e-01 -5.4173e-02 -2.2804e-01
  -2.6202e-01 -6.0861e-01 -5.3305e-01 -5.5866e-01]
 [ 7.8918e-01 -9.6472e-01  1.9909e-01 -1.7508e-01 -1.5985e-01 -9.8459e-01
   9.8867e-02  9.7164e-01  7.5113e-01  5.3109e-01 -3.7482e-01 -1.8607e-01
  -7.6091e-01  7.6883e-03 -9.0283e-01  9.8886e-01]
 [ 7.8221e-02  6.6113e-01 -6.1710e-01 -3.4967e-01 -5.8256e-01 -4.2143e-01
   1.7123e-01 -3.5634e-01  8.7510e-01  7.9267e-01  6.7607e-01 -3.1917e-01
  -3.0103e-01 -5.9831e-01 -4.9838e-01  2.4447e-01]
 [-8.2661e-01  1.9929e-01 -7.5646e-01 -1.5585e-01 -7.6748e-01 -2.4019e-01
  -2.8224e-01  9.1817e-01  4.4991e-01  7.9657e-01  3.1270e-01  5.9392e-01
  -8.6205e-01  9.2740e-02 -5.3892e-01 -6.7808e-01]
 [ 2.9034e-01 -7.3734e-01 -2.6723e-01  8.3890e-02 -3.2982e-01  1.0527e-01
